Weights:
0
0
0
0
0
0
0
0
0
0
0
0
0
0
0
0
0
0
0
0
0
0
0
0
0
0
0
0
0
0
0
0
0
0
0
0
0
0
0
0
0
0
0
0
0
0
0
0
0
0
0
0
0
0
0
0
0
0
0
0
0
0
0
0
0
0
0
0
0
0
0
0
0
0
0
0
0
0
0
0
0
0
0
0
0
0
0
0
0
0
0
0
0
0
0
0
0
0
0
0
0
0
0
0
0
0
0
0
0
0
0
0
0
0
0
0
0
0
0
0
0
0
0
0
0
0
0
0
0
0
0
0
0
0
0
0
0
0
0
0
0
0
0
0
0
0
0
0
0
0
0
0
0
0
0
0
0
0
0
0
0
0
0
0
0
0
0
0
0
0
0
0
0
0
0
0
0
0
0
0
0
0
0
0
0
0
0
0
0
0
0
0
0
0
0
0
0
0
0
0
0
0
0
0
0
0
0
0
0
0
0
0
0
0
0
0
0
0
0
0
0
0
0
0
0
0
0
0
0
0
0
0
0
0
0
0
0
0
0
0
0
0
0
0
0
0
0
0
0
0
0
0
0
0
0
0
0
0
0
0
0
0
0
0
0
0
0
0
0
0
0
0
0
0
0
0
0
0
0
0
0
0
0
0
0
0
0
0
0
0
0
0
0
0
0
0
0
0
0
0
0
0
0
0
0
0
0
0
0
0
0
0
0
0
0
0
0
0
0
0
0
0
0
0
0
0
0
0
0
0
0
0
0
0
0
0
0
0
0
0
0
0
0
0
0
0
0
0
0
0
0
0
0
0
0
0
0
0
0
0
0
0
0
0
0
0
0
0
0
0
0
0
0
0
0
0
0
0
0
0
0
0
0
0
0
0
0
0
0
0
0
0
0
0
0
0
0
0
0
0
0
0
0
0
0
0
0
0
0
0
0
0
0
0
0
0
0
0
0
0
0
0
0
0
0
0
0
0
0
0
0
0
0
0
0
0
0
0
0
0
0
0
0
0
0
0
0
0
0
0
0
0
0
0
0
0
0
0
0
0
0
0
0
0
0
0
0
0
0
0
0
0
0
0
0
0
0
0
0
0
0
0
0
0
0
0
0
0
0
0
0
0
0
0
0
0
0
0
0
0
0
0
0
0
0
0
0
0
0
0
0
0
0
0
0
0
0
0
0
0
0
0
0
0
0
0
0
0
0
0
0
0
0
0
0
0
0
0
0
0
0
0
0
0
0
0
0
0
0
0
0
0
0
0
0
0
0
0
0
0
0
0
0
0
0
0
0
0
0
0
0
0
0
0
0
0
0
0
0
0
0
0
0
0
0
0
0
0
0
0
0
0
0
0
0
0
0
0
0
0
0
0
0
0
0
0
0
0
0
0
0
0
0
0
0
0
0
0
0
0
0
0
0
0
0
0
0
0
0
0
0
0
0
0
0
0
0
0
0
0
0
0
0
0
0
0
0
0
0
0
0
0
0
0
0
0
0
0
0
0
0
0
0
0
0
0
0
0
0
0
0
0
0
0
0
0
0
0
0
0
0
0
0
0
0
0
0
0
0
0
0
0
0
0
0
0
0
0
0
0
0
0
0
0
0
0
0
0
0
0
0
0
0
0
0
0
0
0
0
0
0
0
0
0
0
0
0
0
0
0
0
0
0
0
0
0
0
0
0
0
0
0
0
0
0
0
0
0
0
0
0
0
0
0
0
0
0
0
0
0
0
0
0
0
0
0
0
0
0
0
0
0
0
0
0
0
0
0
0
0
0
0
0
0
0
0
0
0
0
0
0
0
0
0
0
0
0
0
0
0
0
0
0
0
0
0
0
0
0
0
0
0
0
0
0
0
0
0
0
0
0
0
0
0
0
0
0
0
0
0
0
0
0
0
0
0
0
0
0
0
0
0
0
0
0
0
0
0
0
0
0
0
0
0
0
0
0
0
0
0
0
0
0
0
0
0
0
0
0
0
0
0
0
0
0
0
0
0
0
0
0
0
0
0
0
0
0
0
0
0
0
0
0
0
0
0
0
0
0
0
0
0
0
0
0
0
0
0
0
0
0
0
0
0
0
0
0
0
0
0
0
0
0
0
0
0
0
0
0
0
0
0
0
0
0
0
0
0
0
0
0
0
0
0
0
0
0
0
0
0
0
0
0
0
0
0
0
0
0
0
0
0
0
0
0
0
0
0
0
0
0
0
0
0
0
0
0
0
0
0
0
0
0
0
0
0
0
0
0
0
0
0
0
0
0
0
0
0
0
0
0
0
0
0
0
0
0
0
0
0
0
0
0
0
0
0
0
0
0
0
0
0
0
0
0
0
0
0
0
0
0
0
0
0
0
0
0
0
0
0
0
0
0
0
0
0
0
0
0
0
0
0
0
0
0
0
0
0
0
0
0
0
0
0
0
0
0
0
0
0
0
0
0
0
0
0
0
0
0
0
0
0
0
0
0
0
0
0
0
0
0
0
0
0
0
0
0
0
0
0
0
0
0
0
0
0
0
0
0
0
0
0
0
0
0
0
0
0
0
0
0
0
0
0
0
0
0
0
0
0
0
0
0
0
0
0
0
0
0
0
0
0
0
0
0
0
0
0
0
0
0
0
0
0
0
0
0
0
0
0
0
0
0
0
0
0
0
0
0
0
0
0
0
0
0
0
0
0
0
0
0
0
0
0
0
0
0
0
0
0
0
0
0
0
0
0
0
0
0
0
0
0
0
0
0
0
0
0
0
0
0
0
0
0
0
0
0
0
0
0
0
0
0
0
0
0
0
0
0
0
0
0
0
0
0
0
0
0
0
0
0
0
0
0
0
0
0
0
0
0
0
0
0
0
0
0
0
0
0
0
0
0
0
0
0
0
0
0
0
0
0
0
0
0
0
0
0
0
0
0
0
0
0
0
0
0
0
0
0
0
0
0
0
0
0
0
0
0
0
0
0
0
0
0
0
0
0
0
0
0
0
0
0
0
0
0
0
0
0
0
0
0
0
0
0
0
0
0
0
0
0
0
0
0
0
0
0
0
0
0
0
0
0
0
0
0
0
0
0
0
0
0
0
0
0
0
0
0
0
0
0
0
0
0
0
0
0
0
0
0
0
0
0
0
0
0
0
0
0
0
0
0
0
0
0
0
0
0
0
0
0
0
0
0
0
0
0
0
0
0
0
0
0
0
0
0
0
0
0
0
0
0
0
0
0
0
0
0
0
0
0
0
0
0
0
0
0
0
0
0
0
0
0
0
0
0
0
0
0
0
0
0
0
0
0
0
0
0
0
0
0
0
0
0
0
0
0
0
0
0
0
0
0
0
0
0
0
0
0
0
0
0
0
0
0
0
0
0
0
0
0
0
0
0
0
0
0
0
0
0
0
0
0
0
0
0
0
0
0
0
0
0
0
0
0
0
0
0
0
0
0
0
0
0
0
0
0
0
0
0
0
0
0
0
0
0
0
0
0
0
0
0
0
0
0
0
0
0
0
0
0
0
0
0
0
0
0
0
0
0
0
0
0
0
0
0
0
0
0
0
0
0
0
0
0
0
0
0
0
0
0
0
0
0
0
0
0
0
0
0
0
0
0
0
0
0
0
0
0
0
0
0
0
0
0
0
0
0
0
0
0
0
0
0
0
0
0
0
0
0
0
0
0
0
0
0
0
0
0
0
0
0
0
0
0
0
0
0
0
0
0
0
0
0
0
0
0
0
0
0
0
0
0
0
0
0
0
0
0
0
0
0
0
0
0
0
0
0
0
0
0
0
0
0
0
0
0
0
0
0
0
0
0
0
0
0
0
0
0
0
0
0
0
0
0
0
0
0
0
0
0
0
0
0
0
0
0
0
0
0
0
0
0
0
0
0
0
0
0
0
0
0
0
0
0
0
0
0
0
0
0
0
0
0
0
0
0
0
0
0
0
0
0
0
0
0
0
0
0
0
0
0
0
0
0
0
0
0
0
0
0
0
0
0
0
0
0
0
0
0
0
0
0
0
0
0
0
0
0
0
0
0
0
0
0
0
0
0
0
0
0
0
0
0
0
0
0
0
0
0
0
0
0
0
0
0
0
0
0
0
0
0
0
0
0
0
0
0
0
0
0
0
0
0
0
0
0
0
0
0
0
0
0
0
0
0
0
0
0
0
0
0
0
0
0
0
0
0
0
0
0
0
0
0
0
0
0
0
0
0
0
0
0
0
0
0
0
0
0
0
0
0
0
0
0
0
0
0
0
0
0
0
0
0
0
0
0
0
0
0
0
0
0
0
0
0
0
0
0
0
0
0
0
0
0
0
0
0
0
0
0
0
0
0
0
0
0
0
0
0
0
0
0
0
0
0
0
0
0
0
0
0
0
0
0
0
0
0
0
0
0
0
0
0
0
0
0
0
0
0
0
0
0
0
0
0
0
0
0
0
0
0
0
0
0
0
0
0
0
0
0
0
0
0
0
0
0
0
0
0
0
0
0
0
0
0
0
0
0
0
0
0
0
0
0
0
0
0
0
0
0
0
0
0
0
0
0
0
0
0
0
0
0
0
0
0
0
0
0
0
0
0
0
0
0
0
0
0
0
0
0
0
0
0
0
0
0
0
0
0
0
0
0
0
0
0
0
0
0
0
0
0
0
0
0
0
0
0
0
0
0
0
0
0
0
0
0
0
0
0
0
0
0
0
0
0
0
0
0
0
0
0
0
0
0
0
0
0
0
0
0
0
0
0
0
0
0
0
0
0
0
0
0
0
0
0
0
0
0
0
0
0
0
0
0
0
0
0
0
0
0
0
0
0
0
0
0
0
0
0
0
0
0
0
0
0
0
0
0
0
0
0
0
0
0
0
0
0
0
0
0
0
0
0
0
0
0
0
0
0
0
0
0
0
0
0
0
0
0
0
0
0
0
0
0
0
0
0
0
0
0
0
0
0
0
0
0
0
0
0
0
0
0
0
0
0
0
0
0
0
0
0
0
0
0
0
0
0
0
0
0
0
0
0
0
0
0
0
0
0
0
0
0
0
0
0
0
0
0
0
0
0
0
0
0
0
0
0
0
0
0
0
0
0
0
0
0
0
0
0
0
0
0
0
0
0
0
0
0
0
0
0
0
0
0
0
0
0
0
0
0
0
0
0
0
0
0
0
0
0
0
0
0
0
0
0
0
0
0
0
0
0
0
0
0
0
0
0
0
0
0
0
0
0
0
0
0
0
0
0
0
0
0
0
0
0
0
0
0
0
0
0
0
0
0
0
0
0
0
0
0
0
0
0
0
0
0
0
0
0
0
0
0
0
0
0
0
0
0
0
0
0
0
0
0
0
0
0
0
0
0
0
0
0
0
0
0
0
0
0
0
0
0
0
0
0
0
0
0
0
0
0
0
0
0
0
0
0
0
0
0
0
0
0
0
0
0
0
0
0
0
0
0
0
0
0
0
0
0
0
0
0
0
0
0
0
0
0
0
0
0
0
0
0
0
0
0
0
0
0
0
0
0
0
0
0
0
0
0
0
0
0
0
0
0
0
0
0
0
0
0
0
0
0
0
0
0
0
0
0
0
0
0
0
0
0
0
0
0
0
0
0
0
0
0
0
0
0
0
0
0
0
0
0
0
0
0
0
0
0
0
0
0
0
0
0
0
0
0
0
0
0
0
0
0
0
0
0
0
0
0
0
0
0
0
0
0
0
0
0
0
0
0
0
0
0
0
0
0
0
0
0
0
0
0
0
0
0
0
0
0
0
0
0
0
0
0
0
0
0
0
0
0
0
0
0
0
0
0
0
0
0
0
0
0
0
0
0
0
0
0
0
0
0
0
0
0
0
0
0
0
0
0
0
0
0
0
0
0
0
0
0
0
0
0
0
0
0
0
0
0
0
0
0
0
0
0
0
0
0
0
0
0
0
0
0
0
0
0
0
0
0
0
0
0
0
0
0
0
0
0
0
0
0
0
0
0
0
0
0
0
0
0
0
0
0
0
0
0
0
0
0
0
0
0
0
0
0
0
0
0
0
0
0
0
0
0
0
0
0
0
0
0
0
0
0
0
0
0
0
0
0
0
0
0
0
0
0
0
0
0
0
0
0
0
0
0
0
0
0
0
0
0
0
0
0
0
0
0
0
0
0
0
0
0
0
0
0
0
0
0
0
0
0
0
0
0
0
0
0
0
0
0
0
0
0
0
0
0
0
0
0
0
0
0
0
0
0
0
0
0
0
0
0
0
0
0
0
0
0
0
0
0
0
0
0
0
0
0
0
0
0
0
0
0
0
0
0
0
0
0
0
0
0
0
0
0
0
0
0
0
0
0
0
0
0
0
0
0
0
0
0
0
0
0
0
0
0
0
0
0
0
0
0
0
0
0
0
0
0
0
0
0
0
0
0
0
0
0
0
0
0
0
0
0
0
0
0
0
0
0
0
0
0
0
0
0
0
0
0
0
0
0
0
0
0
0
0
0
0
0
0
0
0
0
0
0
0
0
0
0
0
0
0
0
0
0
0
0
0
0
0
0
0
0
0
0
0
0
0
0
0
0
0
0
0
0
0
0
0
0
0
0
0
0
0
0
0
0
0
0
0
0
0
0
0
0
0
0
0
0
0
0
0
0
0
0
0
0
0
0
0
0
0
0
0
0
0
0
0
0
0
0
0
0
0
0
0
0
0
0
0
0
0
0
0
0
0
0
0
0
0
0
0
0
0
0
0
0
0
0
0
0
0
0
0
0
0
0
0
0
0
0
0
0
0
0
0
0
0
0
0
0
0
0
0
0
0
0
0
0
0
0
0
0
0
0
0
0
0
0
0
0
0
0
0
0
0
0
0
0
0
0
0
0
0
0
0
0
0
0
0
0
0
0
0
0
0
0
0
0
0
0
0
0
0
0
0
0
0
0
0
0
0
0
0
0
0
0
0
0
0
0
0
0
0
0
0
0
0
0
0
0
0
0
0
0
0
0
0
0
0
0
0
0
0
0
0
0
0
0
0
0
0
0
0
0
0
0
0
0
0
0
0
0
0
0
0
0
0
0
0
0
0
0
0
0
0
0
0
0
0
0
0
0
0
0
0
0
0
0
0
0
0
0
0
0
0
0
0
0
0
0
0
0
0
0
0
0
0
0
0
0
0
0
0
0
0
0
0
0
0
0
0
0
0
0
0
0
0
0
0
0
0
0
0
0
0
0
0
0
0
0
0
0
0
0
0
0
0
0
0
0
0
0
0
0
0
0
0
0
0
0
0
0
0
0
0
0
0
0
0
0
0
0
0
0
0
0
0
0
0
0
0
0
0
0
0
0
0
0
0
0
0
0
0
0
0
0
0
0
0
0
0
0
0
0
0
0
0
0
0
0
0
0
0
0
0
0
0
0
0
0
0
0
0
0
0
0
0
0
0
0
0
0
0
0
0
0
0
0
0
0
0
0
0
0
0
0
0
0
0
0
0
0
0
0
0
0
0
0
0
0
0
0
0
0
0
0
0
0
0
0
0
0
0
0
0
0
0
0
0
0
0
0
0
0
0
0
0
0
0
0
0
0
0
0
0
0
0
0
0
0
0
0
0
0
0
0
0
0
0
0
0
0
0
0
0
0
0
0
0
0
0
0
0
0
0
0
0
0
0
0
0
0
0
0
0
0
0
0
0
0
0
0
0
0
0
0
0
0
0
0
0
0
0
0
0
0
0
0
0
0
0
0
0
0
0
0
0
0
0
0
0
0
0
0
0
0
0
0
0
0
0
0
0
0
0
0
0
0
0
0
0
0
0
0
0
0
0
0
0
0
0
0
0
0
0
0
0
0
0
0
0
0
0
0
0
0
0
0
0
0
0
0
0
0
0
0
0
0
0
0
0
0
0
0
0
0
0
0
0
0
0
0
0
0
0
0
0
0
0
0
0
0
0
0
0
0
0
0
0
0
0
0
0
0
0
0
0
0
0
0
0
0
0
0
0
0
0
0
0
0
0
0
0
0
0
0
0
0
0
0
0
0
0
0
0
0
0
0
0
0
0
0
0
0
0
0
0
0
0
0
0
0
0
0
0
0
0
0
0
0
0
0
0
0
0
0
0
0
0
0
0
0
0
0
0
0
0
0
0
0
0
0
0
0
0
0
0
0
0
0
0
0
0
0
0
0
0
0
0
0
0
0
0
0
0
0
0
0
0
0
0
0
0
0
0
0
0
0
0
0
0
0
0
0
0
0
0
0
0
0
0
0
0
0
0
0
0
0
0
0
0
0
0
0
0
0
0
0
0
0
0
0
0
0
0
0
0
0
0
0
0
0
0
0
0
0
0
0
0
0
0
0
0
0
0
0
0
0
0
0
0
0
0
0
0
0
0
0
0
0
0
0
0
0
0
0
0
0
0
0
0
0
0
0
0
0
0
0
0
0
0
0
0
0
0
0
0
0
0
0
0
0
0
0
0
0
0
0
0
0
0
0
0
0
0
0
0
0
0
0
0
0
0
0
0
0
0
0
0
0
0
0
0
0
0
0
0
0
0
0
0
0
0
0
0
0
0
0
0
0
0
0
0
0
0
0
0
0
0
0
0
0
0
0
0
0
0
0
0
0
0
0
0
0
0
0
0
0
0
0
0
0
0
0
0
0
0
0
0
0
0
0
0
0
0
0
0
0
0
0
0
0
0
0
0
0
0
0
0
0
0
0
0
0
0
0
0
0
0
0
0
0
0
0
0
0
0
0
0
0
0
0
0
0
0
0
0
0
0
0
0
0
0
0
0
0
0
0
0
0
0
0
0
0
0
0
0
0
0
0
0
0
0
0
0
0
0
0
0
0
0
0
0
0
0
0
0
0
0
0
0
0
0
0
0
0
0
0
0
0
0
0
0
0
0
0
0
0
0
0
0
0
0
0
0
0
0
0
0
0
0
0
0
0
0
0
0
0
0
0
0
0
0
0
0
0
0
0
0
0
0
0
0
0
0
0
0
0
0
0
0
0
0
0
0
0
0
0
0
0
0
0
0
0
0
0
0
0
0
0
0
0
0
0
0
0
0
0
0
0
0
0
0
0
0
0
0
0
0
0
0
0
0
0
0
0
0
0
0
0
0
0
0
0
0
0
0
0
0
0
0
0
0
0
0
0
0
0
0
0
0
0
0
0
0
0
0
0
0
0
0
0
0
0
0
0
0
0
0
0
0
0
0
0
0
0
0
0
0
0
0
0
0
0
0
0
0
0
0
0
0
0
0
0
0
0
0
0
0
0
0
0
0
0
0
0
0
0
0
0
0
0
0
0
0
0
0
0
0
0
0
0
0
0
0
0
0
0
0
0
0
0
0
0
0
0
0
0
0
0
0
0
0
0
0
0
0
0
0
0
0
0
0
0
0
0
0
0
0
0
0
0
0
0
0
0
0
0
0
0
0
0
0
0
0
0
0
0
0
0
0
0
0
0
0
0
0
0
0
0
0
0
0
0
0
0
0
0
0
0
0
0
0
0
0
0
0
0
0
0
0
0
0
0
0
0
0
0
0
0
0
0
0
0
0
0
0
0
0
0
0
0
0
0
0
0
0
0
0
0
0
0
0
0
0
0
0
0
0
0
0
0
0
0
0
0
0
0
0
0
0
0
0
0
0
0
0
0
0
0
0
0
0
0
0
0
0
0
0
0
0
0
0
0
0
0
0
0
0
0
0
0
0
0
0
0
0
0
0
0
0
0
0
0
0
0
0
0
0
0
0
0
0
0
0
0
-431
0
-78
-352
-39
-235
0
0
0
-117
0
0
-156
0
0
0
-235
0
-78
-274
0
-392
0
0
0
0
0
0
0
0
0
0
0
0
0
0
0
0
0
0
0
0
0
0
0
0
0
0
0
0
0
0
0
0
0
0
0
0
0
0
0
0
0
0
0
0
0
0
0
0
0
0
0
0
0
0
0
0
0
0
0
0
0
0
0
0
0
0
0
0
0
0
0
0
0
0
0
0
0
0
0
0
0
0
0
0
0
0
0
0
0
0
0
0
0
0
0
0
0
0
0
0
0
0
0
0
0
0
0
0
0
0
0
0
0
0
0
0
0
0
0
0
0
0
0
0
0
0
0
0
0
0
0
0
0
0
0
0
0
0
0
0
0
0
0
0
0
0
0
0
0
0
0
0
0
0
0
0
0
0
0
0
0
0
0
0
0
0
0
0
0
0
0
0
0
0
0
0
0
0
0
0
0
0
0
0
0
0
0
0
0
0
0
0
0
0
0
0
0
0
0
0
0
0
0
0
0
0
0
0
0
0
0
0
0
0
0
0
0
0
0
0
0
0
0
0
0
0
0
0
0
0
0
0
0
-431
0
-156
0
-78
0
0
-509
-235
0
0
-745
0
-588
0
-588
-196
0
-470
-235
0
-156
0
-352
0
0
0
0
0
0
0
0
0
0
0
0
0
0
0
0
0
0
0
0
0
0
0
0
0
0
0
0
0
0
0
0
0
0
0
0
0
0
0
0
0
0
0
0
0
0
0
0
0
0
0
0
0
0
0
0
0
0
0
0
0
0
0
0
0
0
0
0
0
0
0
0
0
0
0
0
0
0
0
0
0
0
0
0
0
0
0
0
0
0
0
0
0
0
0
0
0
0
0
0
0
0
0
0
0
0
0
0
0
0
0
0
0
0
0
0
0
0
0
0
0
0
0
0
0
0
0
0
0
0
0
0
0
0
0
0
0
0
0
0
0
0
0
0
0
0
0
0
0
0
0
0
0
0
0
0
0
0
0
0
0
0
0
0
0
0
0
0
0
0
0
0
0
0
0
0
0
0
0
0
0
0
0
0
0
0
0
0
0
0
0
0
0
0
0
0
0
0
0
0
0
0
0
0
0
0
0
0
0
0
0
0
0
0
0
0
0
0
0
0
0
0
0
0
0
0
0
0
0
0
0
0
0
-235
0
-352
-196
-313
-352
0
0
0
-274
0
0
-196
0
0
0
-196
-117
0
-235
-1215
0
-431
0
0
0
0
0
0
0
0
0
0
0
0
0
0
0
0
0
0
0
0
0
0
0
0
0
0
0
0
0
0
0
0
0
0
0
0
0
0
0
0
0
0
0
0
0
0
0
0
0
0
0
0
0
0
0
0
0
0
0
0
0
0
0
0
0
0
0
0
0
0
0
0
0
0
0
0
0
0
0
0
0
0
0
0
0
0
0
0
0
0
0
0
0
0
0
0
0
0
0
0
0
0
0
0
0
0
0
0
0
0
0
0
0
0
0
0
0
0
0
0
0
0
0
0
0
0
0
0
0
0
0
0
0
0
0
0
0
0
0
0
0
0
0
0
0
0
0
0
0
0
0
0
0
0
0
0
0
0
0
0
0
0
0
0
0
0
0
0
0
0
0
0
0
0
0
0
0
0
0
0
0
0
0
0
0
0
0
0
0
0
0
0
0
0
0
0
0
0
0
0
0
0
0
0
0
0
0
0
0
0
0
0
0
0
0
0
0
0
0
0
0
0
0
0
0
0
0
0
0
0
0
0
-509
0
-470
-745
0
0
0
-666
-431
0
0
-549
-470
-39
-588
0
0
-745
0
-823
0
0
0
0
0
0
0
0
0
0
0
0
0
0
0
0
0
0
0
0
0
0
0
0
0
0
0
0
0
0
0
0
0
0
0
0
0
0
0
0
0
0
0
0
0
0
0
0
0
0
0
0
0
0
0
0
0
0
0
0
0
0
0
0
0
0
0
0
0
0
0
0
0
0
0
0
0
0
0
0
0
0
0
0
0
0
0
0
0
0
0
0
0
0
0
0
0
0
0
0
0
0
0
0
0
0
0
0
0
0
0
0
0
0
0
0
0
0
0
0
0
0
0
0
0
0
0
0
0
0
0
0
0
0
0
0
0
0
0
0
0
0
0
0
0
0
0
0
0
0
0
0
0
0
0
0
0
0
0
0
0
0
0
0
0
0
0
0
0
0
0
0
0
0
0
0
0
0
0
0
0
0
0
0
0
0
0
0
0
0
0
0
0
0
0
0
0
0
0
0
0
0
0
0
0
0
0
0
0
0
0
0
0
0
0
0
0
0
0
0
0
0
0
0
0
0
0
0
0
0
0
0
0
0
0
0
-156
-352
-117
0
-156
0
-39
0
0
0
-666
-9686
-9529
-9764
-10000
-10000
-10000
-9294
-10000
-9764
-10000
-10000
-705
-196
0
0
0
0
0
0
0
0
0
0
0
0
0
0
0
0
0
0
0
0
0
0
0
0
0
0
0
0
0
0
0
0
0
0
0
0
0
0
0
0
0
0
0
0
0
0
0
0
0
0
0
0
0
0
0
0
0
0
0
0
0
0
0
0
0
0
0
0
0
0
0
0
0
0
0
0
0
0
0
0
0
0
0
0
0
0
0
0
0
0
0
0
0
0
0
0
0
0
0
0
0
0
0
0
0
0
0
0
0
0
0
0
0
0
0
0
0
0
0
0
0
0
0
0
0
0
0
0
0
0
0
0
0
0
0
0
0
0
0
0
0
0
0
0
0
0
0
0
0
0
0
0
0
0
0
0
0
0
0
0
0
0
0
0
0
0
0
0
0
0
0
0
0
0
0
0
0
0
0
0
0
0
0
0
0
0
0
0
0
0
0
0
0
0
0
0
0
0
0
0
0
0
0
0
0
0
0
0
0
0
0
0
0
0
0
0
0
0
0
0
0
0
0
0
0
0
0
0
0
0
0
0
-78
0
0
-705
0
-901
-39
-431
0
-10000
-9568
-9803
-10000
-10000
-8980
-10000
-10000
-10000
-9568
-10000
-9254
-10000
-9686
-9607
0
0
0
0
0
0
0
0
0
0
0
0
0
0
0
0
0
0
0
0
0
0
0
0
0
0
0
0
0
0
0
0
0
0
0
0
0
0
0
0
0
0
0
0
0
0
0
0
0
0
0
0
0
0
0
0
0
0
0
0
0
0
0
0
0
0
0
0
0
0
0
0
0
0
0
0
0
0
0
0
0
0
0
0
0
0
0
0
0
0
0
0
0
0
0
0
0
0
0
0
0
0
0
0
0
0
0
0
0
0
0
0
0
0
0
0
0
0
0
0
0
0
0
0
0
0
0
0
0
0
0
0
0
0
0
0
0
0
0
0
0
0
0
0
0
0
0
0
0
0
0
0
0
0
0
0
0
0
0
0
0
0
0
0
0
0
0
0
0
0
0
0
0
0
0
0
0
0
0
0
0
0
0
0
0
0
0
0
0
0
0
0
0
0
0
0
0
0
0
0
0
0
0
0
0
0
0
0
0
0
0
0
0
0
0
0
0
0
0
0
0
0
0
0
0
0
0
0
0
0
0
0
0
-78
-117
0
0
-666
0
-10000
-9647
-10000
-10000
-9686
-9960
-9333
-10000
-9764
-9490
-10000
-9803
-10000
-10000
-10000
-9921
-10000
0
0
0
0
0
0
0
0
0
0
0
0
0
0
0
0
0
0
0
0
0
0
0
0
0
0
0
0
0
0
0
0
0
0
0
0
0
0
0
0
0
0
0
0
0
0
0
0
0
0
0
0
0
0
0
0
0
0
0
0
0
0
0
0
0
0
0
0
0
0
0
0
0
0
0
0
0
0
0
0
0
0
0
0
0
0
0
0
0
0
0
0
0
0
0
0
0
0
0
0
0
0
0
0
0
0
0
0
0
0
0
0
0
0
0
0
0
0
0
0
0
0
0
0
0
0
0
0
0
0
0
0
0
0
0
0
0
0
0
0
0
0
0
0
0
0
0
0
0
0
0
0
0
0
0
0
0
0
0
0
0
0
0
0
0
0
0
0
0
0
0
0
0
0
0
0
0
0
0
0
0
0
0
0
0
0
0
0
0
0
0
0
0
0
0
0
0
0
0
0
0
0
0
0
0
0
0
0
0
0
0
0
0
0
0
0
0
0
0
0
0
0
0
0
0
0
0
0
0
0
0
0
-117
0
0
-313
-39
0
-10000
-9960
-10000
-9490
-9882
-10000
-10000
-10000
-9725
-10000
-10000
-9803
-10000
-9960
-9686
-9921
-10000
-9960
0
0
0
0
0
0
0
0
0
0
0
0
0
0
0
0
0
0
0
0
0
0
0
0
0
0
0
0
0
0
0
0
0
0
0
0
0
0
0
0
0
0
0
0
0
0
0
0
0
0
0
0
0
0
0
0
0
0
0
0
0
0
0
0
0
0
0
0
0
0
0
0
0
0
0
0
0
0
0
0
0
0
0
0
0
0
0
0
0
0
0
0
0
0
0
0
0
0
0
0
0
0
0
0
0
0
0
0
0
0
0
0
0
0
0
0
0
0
0
0
0
0
0
0
0
0
0
0
-78
0
-470
0
0
-470
0
-392
-470
-235
0
-78
-78
-392
0
-39
-78
0
-39
0
-117
-274
-78
0
0
-392
0
-235
0
-196
0
-117
0
196
-39
0
-156
0
117
-39
-431
39
-1607
78
-235
-509
313
-1411
392
-235
39
-78
-117
0
392
-509
274
-901
509
-2000
78
235
-1411
117
-156
-509
470
-78
-156
-549
117
156
-313
-156
-117
-78
-156
-274
-627
-313
0
-352
-313
0
0
-431
0
-78
0
0
-980
-431
-78
-588
-745
-431
-78
-274
0
0
-235
-745
0
-156
-509
-470
-235
0
-10117
-10000
-9803
-10313
-10000
-10000
-10000
-10000
-10000
-10000
-10000
-10000
-10000
-9803
-10000
-9843
-9803
-10000
-9803
-9960
0
0
0
0
0
0
0
0
0
0
0
0
0
0
0
0
0
0
0
0
0
0
0
0
0
0
0
0
0
0
0
0
0
0
0
0
0
0
0
0
0
0
0
0
0
0
0
0
0
0
0
0
0
0
0
0
0
0
0
0
0
0
0
0
0
0
0
0
0
0
0
0
0
0
0
0
0
0
0
0
0
0
0
0
0
0
0
0
0
0
0
0
0
0
0
0
0
0
0
0
0
0
0
0
0
0
0
0
0
0
0
0
0
0
0
0
0
0
0
0
0
0
0
0
0
0
0
0
-392
0
0
-392
-2117
0
-156
0
-78
-78
-705
-274
-78
-313
-1568
-78
-156
-392
-156
0
-509
0
0
-352
-156
-235
0
-117
-274
-274
-392
0
-78
-196
-156
-117
313
-941
-117
78
-470
-588
313
-117
-2549
-352
-1411
352
0
-274
-1176
431
39
-1647
0
-156
0
-1254
549
-156
-1921
0
588
-2000
470
313
-274
-352
549
156
-1019
117
-274
-392
-313
-1176
-549
-705
-196
-235
-470
0
0
-352
0
0
-666
0
-823
0
-235
-705
-509
-78
-196
-549
-156
-117
-588
0
-196
-117
-392
-666
-78
-156
-588
-9607
-10352
-9921
-9803
-10000
-10000
-10000
-10000
-10000
-10000
-10000
-10000
-10000
-10000
-10000
-9058
-10000
-10000
-9176
-10000
0
0
0
0
0
0
0
0
0
0
0
0
0
0
0
0
0
0
0
0
0
0
0
0
0
0
0
0
0
0
0
0
0
0
0
0
0
0
0
0
0
0
0
0
0
0
0
0
0
0
0
0
0
0
0
0
0
0
0
0
0
0
0
0
0
0
0
0
0
0
0
0
0
0
0
0
0
0
0
0
0
0
0
0
0
0
0
0
0
0
0
0
0
0
0
0
0
0
0
0
0
0
0
0
0
0
0
0
0
0
0
0
0
0
0
0
0
0
0
0
0
0
0
0
0
0
0
0
0
0
-1019
-1176
0
0
-78
0
-1647
-470
0
-705
0
-823
0
-941
-705
0
-352
-274
0
-313
0
-39
-117
-235
0
-549
-627
0
0
-509
0
-431
196
-470
-784
-78
78
-745
0
0
-313
39
-941
-274
431
-156
-901
352
352
196
-1568
-2000
549
0
235
0
78
0
431
823
-2000
392
156
-431
549
196
0
-549
-117
-862
-156
-980
-235
313
196
313
-1019
-196
-745
-78
-470
-392
-352
-78
-509
-549
-196
0
-2235
0
0
-588
-1372
-1490
0
0
-274
0
-1176
-666
-352
-901
0
-588
-588
-10000
-10000
-10000
-10039
-10156
-10000
-10000
-10000
-10000
-10000
-10000
-10000
-10000
-10000
-9411
-10000
-10000
-9960
-9725
-196
0
-549
0
0
0
0
0
0
0
0
0
0
0
0
0
0
0
0
0
0
0
0
0
0
0
0
0
0
0
0
0
0
0
0
0
0
0
0
0
0
0
0
0
0
0
0
0
0
0
0
0
0
0
0
0
0
0
0
0
0
0
0
0
0
0
0
0
0
0
0
0
0
0
0
0
0
0
0
0
0
0
0
0
0
0
0
0
0
0
0
0
0
0
0
0
0
0
0
0
0
0
0
0
0
0
0
0
0
0
0
0
0
0
0
0
0
0
0
0
0
0
0
0
0
0
0
0
0
0
0
0
-313
0
-235
-1882
0
-313
0
0
-627
-117
-274
-235
-1254
0
0
-392
0
0
-313
0
-588
0
-39
-39
-666
-39
-313
-627
-196
-39
-313
-352
-666
274
-9725
-9568
-156
0
-392
-470
274
-117
-78
-823
8470
9647
8588
9764
-20784
-20039
-19372
-18274
-19686
-30039
-235
-627
156
-235
235
196
627
9098
9529
10039
9960
-862
-39
-156
-235
352
-39
-9333
-10470
-10078
-11372
-9529
-10274
-10901
-9490
-10470
-19294
-20000
-9137
-10000
-10549
-9882
-9803
-10274
-10117
-10078
-1490
-745
0
-274
-392
-313
-509
-549
0
0
-392
-588
-470
-784
-9921
-9921
-9882
-9450
-10117
-10000
-9921
-10000
-10000
-10000
-10000
-10000
-10000
-10000
-10000
-10000
-10000
-9725
-9647
0
-156
-156
0
0
0
0
0
0
0
0
0
0
0
0
0
0
0
0
0
0
0
0
0
0
0
0
0
0
0
0
0
0
0
0
0
0
0
0
0
0
0
0
0
0
0
0
0
0
0
0
0
0
0
0
0
0
0
0
0
0
0
0
0
0
0
0
0
0
0
0
0
0
0
0
0
0
0
0
0
0
0
0
0
0
0
0
0
0
0
0
0
0
0
0
0
0
0
0
0
0
0
0
0
0
0
0
0
0
0
0
0
0
0
0
0
0
0
0
0
0
0
0
0
0
0
0
0
0
0
0
0
-313
-78
-1411
-862
0
0
-470
0
0
-117
-235
-1803
0
-431
-549
-1294
-196
-235
-235
0
0
-9725
-10000
-9960
-9921
-9960
-10705
-9921
-9921
-19843
-19372
-19921
-19647
-19333
-20000
-20000
-10196
-10352
-9450
-9960
-352
274
-705
-2078
-30000
-18352
-20352
-20000
-20039
-18352
-20823
-19215
-20666
-20313
-18156
-19960
-19921
-17450
313
8666
10196
9098
10196
9921
10039
9215
9411
9843
9843
-470
-10000
-11058
-10274
-11019
-10509
-10431
-9960
-10235
-19568
-20549
-20039
-19450
-19568
-20117
-19764
-19450
-10313
-10352
-10274
-10431
-9764
-10039
-9450
-1529
-392
-10117
-10039
-9843
-9882
-10117
-10000
-10078
-117
-313
-9607
-9921
-10000
-10156
-10274
-10000
-9882
-9882
-10000
-10000
-10000
-10000
-10000
-10000
-10000
-10000
-9843
-9843
-10000
0
-1215
0
0
0
0
0
0
0
0
0
0
0
0
0
0
0
0
0
0
0
0
0
0
0
0
0
0
0
0
0
0
0
0
0
0
0
0
0
0
0
0
0
0
0
0
0
0
0
0
0
0
0
0
0
0
0
0
0
0
0
0
0
0
0
0
0
0
0
0
0
0
0
0
0
0
0
0
0
0
0
0
0
0
0
0
0
0
0
0
0
0
0
0
0
0
0
0
0
0
0
0
0
0
0
0
0
0
0
0
0
0
0
0
0
0
0
0
0
0
0
0
0
0
0
0
0
0
0
0
0
0
0
0
-313
0
0
-20000
-19450
-19843
-20000
-20117
-20117
0
-235
0
-274
-1098
0
0
-313
-9921
-9921
-10000
-9803
-10000
-10000
-10000
-10000
-10039
-20000
-20000
-20000
-20000
-19803
-19568
-19529
-19803
-19764
-19686
-9921
-784
-156
-352
-549
-29960
-28235
-29803
-29568
-30156
-28313
-29960
-29490
-29647
-30352
-19882
-20549
-20509
-20000
-19450
-29725
-19568
20000
8901
9372
9647
10392
9529
235
-196
-9882
-10000
-10039
-9137
-9137
-19411
-10235
-9921
-10078
-9450
-20862
-20039
-20039
-19490
-19725
-19882
-18901
-19450
-19333
-19450
-19411
-19411
-10352
-10078
-19490
-19960
-19098
-10000
-10274
-9960
-10000
-10000
-10039
-9921
-10313
-10000
-941
-10000
-10470
-9568
-9921
-10000
-10000
-9333
-10274
-10000
-10000
-10000
-10000
-10000
-10000
-10000
-10000
-10000
-9647
-9764
0
0
0
-705
-39
0
0
0
0
0
0
0
0
0
0
0
0
0
0
0
0
0
0
0
0
0
0
0
0
0
0
0
0
0
0
0
0
0
0
0
0
0
0
0
0
0
0
0
0
0
0
0
0
0
0
0
0
0
0
0
0
0
0
0
0
0
0
0
0
0
0
0
0
0
0
0
0
0
0
0
0
0
0
0
0
0
0
0
0
0
0
0
0
0
0
0
0
0
0
0
0
0
0
0
0
0
0
0
0
0
0
0
0
0
0
0
0
0
0
0
0
0
0
0
0
0
0
0
0
0
0
0
0
-627
-313
-392
-20000
-20000
-18431
-20000
-19294
-19294
-19686
-20196
-627
-862
-1411
-1411
-235
-10000
-9568
-10000
-10000
-8862
-10000
-9686
-10000
-10352
-19960
-19333
-19803
-19647
-19921
-19960
-19960
-20000
-19764
-19176
-9960
-10352
-9882
-9764
-39
-941
-29176
-28156
-30117
-30196
-28823
-29882
-29647
-29490
-30235
-29176
-29254
-30274
-29843
-29490
-29450
-29686
-8901
-10117
-10000
-8823
8862
9294
10549
9333
9803
-117
-10000
-9137
-9882
-11294
-10313
-10000
-21058
-9333
-11019
-20078
-29803
-29490
-29490
-29843
-29725
-29568
-30000
-30000
-29372
-29803
-30000
-29607
-29176
-19098
-20392
-18470
-19803
-19686
-10352
-10000
-10588
-10274
-9647
-10000
-10000
-10156
-19176
-9921
-9921
-10156
-9882
-9803
-10196
-10000
-9803
-10000
-10000
-10000
-10000
-10000
-10000
-10000
-10000
-10000
-10000
-313
-235
0
-78
-196
0
0
0
0
0
0
0
0
0
0
0
0
0
0
0
0
0
0
0
0
0
0
0
0
0
0
0
0
0
0
0
0
0
0
0
0
0
0
0
0
0
0
0
0
0
0
0
0
0
0
0
0
0
0
0
0
0
0
0
0
0
0
0
0
0
0
0
0
0
0
0
0
0
0
0
0
0
0
0
0
0
0
0
0
0
0
0
0
0
0
0
0
0
0
0
0
0
0
0
0
0
0
0
0
0
0
0
0
0
0
0
0
0
0
0
0
0
0
0
0
0
0
0
0
0
0
0
0
0
-313
0
-20000
-19921
-20000
-19921
-20000
-20000
-20196
-20000
-19921
-18823
0
-431
-9764
-10392
-9647
-10000
-10000
-9568
-10000
-10000
-10000
-9725
-19490
-20000
-20000
-20000
-20000
-19764
-20000
-19960
-19568
-19568
-9764
-10039
-10000
-9725
-10000
-9686
-196
-29960
-30196
-29098
-29764
-29803
-27803
-30352
-29019
-30000
-28627
-30000
-29568
-29215
-29450
-20235
-19098
-10196
-10470
-9647
-10156
-9647
10313
9843
9490
-470
-196
-10000
-10000
-9882
-19254
-19725
-20156
-19333
-29921
-19490
-29803
-29921
-30117
-29803
-29882
-29686
-29960
-29490
-29294
-29843
-29764
-29921
-29490
-29529
-29882
-19333
-20392
-20000
-20000
-10000
-9725
-10549
-9764
-10000
-10392
-9882
-10000
-19843
-19490
-10431
-9803
-10196
-9333
-10588
-9921
-10313
-10000
-10000
-10000
-10000
-10000
-10000
-10000
-10000
-10000
-9725
-117
0
-196
-235
0
-78
0
0
0
0
0
0
0
0
0
0
0
0
0
0
0
0
0
0
0
0
0
0
0
0
0
0
0
0
0
0
0
0
0
0
0
0
0
0
0
0
0
0
0
0
0
0
0
0
0
0
0
0
0
0
0
0
0
0
0
0
0
0
0
0
0
0
0
0
0
0
0
0
0
0
0
0
0
0
0
0
0
0
0
0
0
0
0
0
0
0
0
0
0
0
0
0
0
0
0
0
0
0
0
0
0
0
0
0
0
0
0
0
0
0
0
0
0
0
0
0
-235
0
0
-941
0
0
0
0
-352
0
-20313
-20313
-19372
-20000
-20392
-19764
-20039
-19921
-20000
-20117
0
-9960
-9921
-10000
-10000
-10470
-10000
-10392
-10000
-10000
-10000
-10000
-19921
-20313
-20039
-20117
-20078
-19921
-20000
-19921
-19607
-19764
-11215
-9490
-10078
-9921
-10431
-10392
-39960
-29921
-28823
-29411
-29725
-29843
-30039
-29490
-29176
-31176
-30549
-30039
-29019
-30274
-18588
-20705
-8352
-9960
-8196
-10784
-8705
-8039
-9058
19215
9372
823
470
2549
-19999
-18666
-19529
-19529
-19137
-19607
-18745
-28588
-28235
-29882
-28313
-28705
-30156
-29490
-29372
-30901
-30078
-30078
-29607
-29294
-30509
-28941
-30784
-30156
-20666
-20196
-20352
-9843
-10039
-10078
-10901
-10235
-10392
-10509
-19725
-20000
-20196
-10039
-10470
-9725
-10156
-10823
-10000
-10156
-9803
-9215
-9294
-10196
-9215
-10000
-10431
-9882
-9960
-9568
-39
0
-745
196
0
78
-39
352
0
-274
0
39
-235
196
0
0
0
0
0
0
0
0
0
0
0
0
0
0
0
0
0
0
0
0
0
0
0
0
0
0
0
0
0
0
0
0
0
0
0
0
0
0
0
0
0
0
0
0
0
0
0
0
0
0
0
0
0
0
0
0
0
0
0
0
0
0
0
0
0
0
0
0
0
0
0
0
0
0
0
0
0
0
0
0
0
0
0
0
0
0
0
0
0
0
0
0
0
0
0
0
0
0
0
0
0
0
0
0
0
0
0
0
0
0
0
0
0
-1019
-862
0
0
-784
-313
-705
0
-20588
-18666
-20000
-20274
-19921
-19843
-20392
-19921
-19921
-20000
-20392
-10000
-10000
-10000
-9529
-10313
-10000
-10000
-10000
-10000
-10392
-10549
-20000
-20352
-19960
-20000
-20392
-20039
-19882
-20313
-19411
-19333
-10235
-9490
-9960
-11019
-9725
-9490
-37607
-38509
-39450
-30823
-30549
-29725
-30431
-28901
-29647
-30627
-28705
-19529
-20705
-20549
-20705
-20352
-20078
-10156
-8588
-7215
-9411
-10901
-7725
-7960
-9411
8980
549
-2431
-12313
-7372
-20588
-19176
-17647
-19960
-18392
-20627
-39607
-38941
-36117
-29607
-29176
-30196
-29607
-30549
-29215
-29294
-30235
-30588
-30549
-29215
-40509
-40549
-29098
-29568
-20392
-20470
-10784
-10509
-10313
-10000
-10509
-10000
-20274
-20549
-20156
-19294
-10000
-10000
-11137
-9725
-10000
-10235
-10470
-10039
-9490
-9568
-8941
-9843
-9450
-9803
-9843
-9843
-627
-313
235
0
-117
-392
0
-392
-156
666
-274
-352
470
235
-235
0
0
0
0
0
0
0
0
0
0
0
0
0
0
0
0
0
0
0
0
0
0
0
0
0
0
0
0
0
0
0
0
0
0
0
0
0
0
0
0
0
0
0
0
0
0
0
0
0
0
0
0
0
0
0
0
0
0
0
0
0
0
0
0
0
0
0
0
0
0
0
0
0
0
0
0
0
0
0
0
0
0
0
0
0
0
0
0
0
0
0
0
0
0
0
0
0
0
0
0
0
0
0
0
0
0
0
0
0
0
0
0
-1490
0
0
-313
0
0
0
0
-19137
-20392
-18196
-21058
-18666
-20000
-20627
-19843
-20392
-19921
-30000
-29176
-10000
-9490
-10000
-10000
-10000
-10117
-10274
-10588
-10000
-10000
-10000
-19450
-20000
-20078
-20000
-20039
-19333
-20196
-20117
-20000
-20509
-9333
-9882
-10235
-10901
-9372
-11176
-39607
-40078
-39372
-38313
-29764
-29843
-20078
-20705
-20705
-21411
-21137
-21098
-19803
-20313
-19764
-21137
-19490
-7372
-13019
-10313
-8313
-10117
-11254
-5019
-20901
-17647
-17843
10627
-9254
-10666
-8470
-20352
-20941
-20470
-17882
-18274
-29803
-35843
-39176
-39647
-36784
-29843
-28745
-30509
-29882
-31686
-39647
-38980
-39960
-39921
-39372
-38862
-39254
-39607
-30470
-20392
-10784
-10117
-10156
-10156
-10313
-20039
-19921
-20313
-19686
-20000
-20000
-10235
-9960
-10000
-9960
-10784
-10000
-9098
-9921
-9529
-10196
-9529
-10392
-10000
-9843
-352
-39
-901
-78
-941
235
745
-235
78
-313
0
78
0
-352
-274
509
0
0
0
0
0
0
0
0
0
0
0
0
0
0
0
0
0
0
0
0
0
0
0
0
0
0
0
0
0
0
0
0
0
0
0
0
0
0
0
0
0
0
0
0
0
0
0
0
0
0
0
0
0
0
0
0
0
0
0
0
0
0
0
0
0
0
0
0
0
0
0
0
0
0
0
0
0
0
0
0
0
0
0
0
0
0
0
0
0
0
0
0
0
0
0
0
0
0
0
0
0
0
0
0
0
0
0
0
0
0
0
0
0
-549
-235
0
-1803
0
-941
-19921
-20549
-19921
-20705
-19686
-20000
-19960
-19294
-29686
-29254
-29921
-30000
-30000
-10000
-10000
-10000
-10000
-10431
-10000
-10196
-10000
-10705
-10235
-10196
-20000
-20000
-19843
-20117
-20000
-20549
-20000
-19411
-20196
-10039
-9176
-10862
-8901
-10509
-11921
-35803
-38705
-38901
-39725
-39607
-40392
-20431
-19921
-21137
-18627
-19686
-20509
-19450
-19686
-20509
-19254
-21333
-10117
-8352
-9254
-9215
-6039
-9529
-20235
-17098
-18745
-18235
-20705
-17333
9294
-549
1803
-10352
-6784
-19647
-20941
-18156
-28235
-40039
-38823
-39607
-38078
-40117
-39647
-40000
-38941
-39098
-40588
-40392
-40039
-39764
-40078
-39490
-40039
-39921
-29411
-31411
-20156
-10470
-10235
-20588
-20274
-20313
-20823
-19333
-20392
-19607
-20039
-9764
-10509
-10156
-10549
-10078
-10509
-10000
-9647
-9725
-9882
-9647
-9764
-9647
-470
-78
509
-235
-156
588
-117
-352
-156
117
-196
0
-352
901
0
-509
0
0
0
0
0
0
0
0
0
0
0
0
0
0
0
0
0
0
0
0
0
0
0
0
0
0
0
0
0
0
0
0
0
0
0
0
0
0
0
0
0
0
0
0
0
0
0
0
0
0
0
0
0
0
0
0
0
0
0
0
0
0
0
0
0
0
0
0
0
0
0
0
0
0
0
0
0
0
0
0
0
0
0
0
0
0
0
0
0
0
0
0
0
0
0
0
0
0
0
0
0
0
0
0
0
0
0
0
0
0
0
0
0
0
0
-313
-156
0
-862
0
-20000
-18666
-20000
-20000
-20980
-18509
-19215
-30000
-28941
-29921
-29176
-30000
-29647
-10000
-10000
-9215
-10000
-10000
-10431
-10039
-10000
-10000
-10274
-19607
-20000
-19960
-20196
-20000
-19882
-20000
-19921
-20470
-20000
-10039
-9294
-10901
-9764
-11098
-41058
-38352
-39254
-40588
-38039
-30627
-28980
-39137
-30745
-28431
-9686
-9725
-11882
-9686
9019
8627
78
-666
-10941
-11921
-7647
-10078
-19098
-19764
-18666
-10352
-9098
-18352
-14980
-21215
-8941
-17411
29176
29960
20274
20588
-18431
-29098
-39215
-29254
-40862
-36392
-38156
-26745
-30666
-38509
-50392
-49568
-39019
-40392
-49647
-49098
-49529
-50000
-49450
-49019
-50666
-39411
-39764
-39607
-38941
-39372
-19843
-19803
-20078
-20431
-20470
-20196
-20000
-19607
-10196
-9960
-10117
-10000
-10039
-9686
-10078
-9333
-10274
-10078
-235
9490
9882
9215
9372
9176
9803
-941
0
0
-470
-666
235
39
0
0
196
0
156
0
0
0
0
0
0
0
0
0
0
0
0
0
0
0
0
0
0
0
0
0
0
0
0
0
0
0
0
0
0
0
0
0
0
0
0
0
0
0
0
0
0
0
0
0
0
0
0
0
0
0
0
0
0
0
0
0
0
0
0
0
0
0
0
0
0
0
0
0
0
0
0
0
0
0
0
0
0
0
0
0
0
0
0
0
0
0
0
0
0
0
0
0
0
0
0
0
0
0
0
0
0
0
0
0
0
0
0
0
0
0
0
0
-627
-862
0
-941
-235
-19372
-20000
-20509
-19647
-19372
-19607
-19294
-29843
-29529
-29254
-29921
-29607
-30000
-29843
-10000
-9647
-9725
-10000
-10196
-10000
-10000
-10156
-10588
-10000
-19647
-20000
-20313
-20000
-20470
-19686
-20901
-19725
-30000
-28745
-20666
-21019
-19058
-49490
-50000
-49607
-48901
-50000
-49098
-29333
-9960
-10588
-11294
-9843
-11803
-10313
-10274
-10509
-1999
-1921
9686
-2549
9882
9803
9607
8392
12274
17843
23137
20313
549
40156
28627
29764
39921
29254
27176
21450
46784
49176
47882
46705
37647
-196
549
-17490
-58627
-58352
-59882
-58784
-49607
-50000
-49803
-49921
-59333
-58588
-59215
-60431
-58980
-49960
-59372
-59019
-39725
-41019
-39960
-40000
-39098
-40000
-39921
-29921
-19764
-20000
-20000
-19450
-20509
-10000
-9803
-10000
-9686
-10000
-10000
549
-78
-313
9647
10000
9490
9411
9725
9647
9686
78
-313
274
-313
-39
78
-10000
0
-196
0
-117
0
78
0
0
0
0
0
0
0
0
0
0
0
0
0
0
0
0
0
0
0
0
0
0
0
0
0
0
0
0
0
0
0
0
0
0
0
0
0
0
0
0
0
0
0
0
0
0
0
0
0
0
0
0
0
0
0
0
0
0
0
0
0
0
0
0
0
0
0
0
0
0
0
0
0
0
0
0
0
0
0
0
0
0
0
0
0
0
0
0
0
0
0
0
0
0
0
0
0
0
0
0
0
0
0
0
0
0
0
0
0
0
0
0
-235
0
0
0
-1333
-19764
-19137
-19921
-18980
-20000
-20313
-19882
-29960
-29647
-30000
-29137
-29529
-29764
-29960
-29725
-9607
-9921
-10000
-9764
-10196
-10235
-10000
-10235
-10000
-10000
-20000
-19176
-20000
-19411
-19725
-29764
-29568
-29803
-29137
-20588
-19960
-20862
-48000
-49411
-49764
-38784
-29960
-28392
-20000
-20784
-20666
-9843
-9803
-11843
-9647
-10470
-10823
-8784
-19411
-19764
-8431
-10509
-12588
9725
9803
16941
19490
20588
20862
48784
49764
39647
30470
28588
32392
29098
29960
18196
18705
48549
40431
36745
48235
27843
17960
1019
-19568
-18509
-59058
-55333
-59333
-49921
-49098
-49490
-50431
-50078
-59254
-59176
-69019
-69058
-58980
-58862
-39960
-38941
-39607
-39490
-39490
-38862
-39333
-40000
-29411
-30431
-19843
-20705
-19294
-20392
-10431
-9960
-1176
0
313
-784
-39
10000
8705
9019
9764
9725
8745
-196
0
-431
0
-666
705
-431
0
0
0
-9490
0
0
196
-470
0
0
0
0
0
0
0
0
0
0
0
0
0
0
0
0
0
0
0
0
0
0
0
0
0
0
0
0
0
0
0
0
0
0
0
0
0
0
0
0
0
0
0
0
0
0
0
0
0
0
0
0
0
0
0
0
0
0
0
0
0
0
0
0
0
0
0
0
0
0
0
0
0
0
0
0
0
0
0
0
0
0
0
0
0
0
0
0
0
0
0
0
0
0
0
0
0
0
0
0
0
0
0
0
0
0
0
0
0
0
0
0
-392
0
-627
0
0
-19607
-20000
-19843
-20274
-19568
-19921
-19294
-29843
-29803
-29098
-29843
-29882
-29843
-30000
-29686
-10000
-10000
-9764
-10000
-10000
-10156
-10117
-10000
-10274
-10196
-19019
-20000
-30000
-29450
-30000
-29960
-29607
-29843
-29647
-20000
-20117
-49686
-48980
-38509
-19803
-30588
-28274
-20705
-10078
-10235
-10588
-10235
-19921
-20235
-20666
-20117
-18117
-20823
-19372
-29764
-29803
-10431
-9215
-235
431
1607
9411
10117
40509
38823
48941
40117
38862
20862
19450
29372
19803
11490
9647
39960
38509
49647
48313
39843
20588
9529
-431
-9960
-20745
-29764
-59176
-59215
-49843
-48588
-49294
-49607
-50509
-69254
-69411
-69098
-69686
-49019
-40000
-39843
-39450
-40000
-39529
-39568
-39568
-39725
-30000
-29647
-19803
-19647
-20000
-19607
-19607
-10352
-10039
-10627
-9843
-9725
-392
0
0
-431
9803
9529
0
-39
-235
-156
-78
0
-235
-156
39
-196
-313
117
-10000
-39
431
0
0
0
0
0
0
0
0
0
0
0
0
0
0
0
0
0
0
0
0
0
0
0
0
0
0
0
0
0
0
0
0
0
0
0
0
0
0
0
0
0
0
0
0
0
0
0
0
0
0
0
0
0
0
0
0
0
0
0
0
0
0
0
0
0
0
0
0
0
0
0
0
0
0
0
0
0
0
0
0
0
0
0
0
0
0
0
0
0
-313
-196
0
-117
0
-235
-235
0
0
-431
0
-509
0
0
-392
0
-78
-235
0
0
-78
-156
0
-39
352
-941
0
0
-20000
-20039
-19568
-19686
-20078
-20000
-20784
-19882
-30000
-30274
-29764
-29960
-29686
-30039
-30078
-30588
-10431
-10392
-10039
-10156
-10431
-9921
-9372
-9411
-9490
-10745
-29450
-29843
-28588
-29803
-29058
-29058
-29647
-29607
-27843
-19725
-49843
-38666
-21607
-9921
-19882
-10509
-2823
-470
-156
627
-274
-10274
-10039
-10352
-28000
-10549
-18509
-27176
-38980
-38078
-29411
-17215
-11647
-9254
-10196
-10117
-8901
470
40392
48862
39568
38431
38823
39921
19607
28745
30352
10431
10901
9764
48509
47411
49254
39607
30431
9686
10078
-9176
-9882
-19411
-59333
-58588
-58980
-48431
-48549
-49294
-59921
-60862
-69333
-68274
-69450
-60980
-38549
-40235
-39764
-38627
-40078
-40117
-38549
-40117
-40078
-29921
-39372
-30627
-19882
-20235
-20196
-19960
-10784
-10196
-9960
-156
-156
-392
196
-156
-78
-666
-509
-784
-274
-352
-156
-1019
-156
-549
0
-117
-274
-78
0
196
-588
-117
-196
0
156
-39
235
39
0
0
0
-235
0
-78
-274
0
-392
0
0
-431
0
-39
0
-39
0
-196
0
0
0
0
0
0
0
0
0
0
0
0
0
0
0
0
0
0
0
0
0
0
0
0
0
0
0
0
0
0
0
0
0
0
0
0
0
0
0
0
0
0
0
0
0
0
0
0
0
0
0
0
0
0
0
0
0
0
0
0
0
0
0
0
0
0
-666
-39
0
-235
-235
0
0
0
0
0
0
-235
-549
-39
0
0
-156
-117
-78
0
-313
-78
-862
-705
0
-2000
-19843
-17176
-20000
-20509
-20078
-19294
-19921
-20117
-29803
-30470
-30313
-29607
-30627
-30000
-30352
-28823
-10078
-10156
-10078
-11294
-9529
-9882
-11058
-9843
-19137
-29843
-30039
-28627
-28823
-29686
-29411
-26823
-28392
-29921
-29058
-9176
-30196
549
-1058
-11529
-10588
392
-1803
-588
-117
-470
-9568
-1019
39
-11490
-2039
-8039
-17215
-27803
-29254
-29294
-19019
-18941
-18235
-8274
-7450
-9490
-9803
19529
39921
28666
39215
40745
40235
38235
39686
19568
19333
19921
10000
20313
20705
50705
38078
37176
29921
20156
10549
9725
-11019
-784
-9254
-50000
-48627
-38980
-38000
-46549
-59098
-59372
-60078
-67450
-59568
-59137
-41058
-38862
-40039
-39294
-39215
-39450
-39725
-40313
-48784
-40156
-40549
-19568
-20431
-19254
-20588
-20784
-10274
-10196
-10078
-862
39
-352
-705
-941
-10705
-9450
-117
-196
0
-901
-705
-549
0
-784
0
0
-313
-784
-431
9450
-78
-117
352
-196
0
-784
-156
-705
78
78
-196
0
-470
-235
0
-156
0
-352
0
0
-705
0
-39
-549
-235
0
0
0
0
0
0
0
0
0
0
0
0
0
0
0
0
0
0
0
0
0
0
0
0
0
0
0
0
0
0
0
0
0
0
0
0
0
0
0
0
0
0
0
0
0
0
0
0
0
0
0
0
0
0
0
0
0
0
0
0
0
0
0
0
0
-431
0
-196
0
0
0
0
-274
-470
0
-78
0
0
-313
0
0
-313
-78
-78
-78
-196
-78
-1019
-78
-313
-705
117
-18078
-20117
-19568
-19921
-19411
-19960
-19803
-20078
-20274
-29725
-30078
-29568
-30039
-29372
-30784
-29019
-30352
-10980
-11490
-10352
-9411
-10666
-8549
-19254
-19490
-19450
-29176
-28784
-30549
-32117
-27960
-29294
-20156
-19529
-18901
-7921
-18784
-19764
-1450
-7999
-8549
-1215
-1411
-1294
-274
78
-9490
705
-980
-11058
-666
-1019
-11058
-30000
-19019
-26745
-15686
-18980
-20117
-19098
-19529
-9921
-10196
-7882
21647
18117
29764
30627
27254
37764
39607
30000
30901
20745
19333
30549
28862
19215
36823
39333
29490
39294
39372
17607
19647
19647
-1098
-1176
-48745
-38509
-39411
-48823
-49921
-50470
-49725
-50196
-59921
-59686
-58156
-49176
-39333
-39294
-39843
-39686
-48784
-49450
-47607
-49333
-37921
-29843
-19803
-21529
-21294
-19411
-20509
-20784
-10313
-1137
-392
-666
-1294
-392
-9529
-9882
-10313
-10627
-235
-588
0
-274
-1333
-156
-274
0
-1411
0
-39
196
0
-235
509
-196
-431
-313
862
-392
196
78
-352
0
-196
-117
0
-235
-1215
0
-431
-78
0
0
-235
0
0
0
-509
0
0
0
0
0
0
0
0
0
0
0
0
0
0
0
0
0
0
0
0
0
0
0
0
0
0
0
0
0
0
0
0
0
0
0
0
0
0
0
0
0
0
0
0
0
0
0
0
0
0
0
0
0
0
0
0
0
0
0
0
0
0
0
0
-39
0
0
-745
-39
-549
0
0
0
0
-39
-509
-196
0
0
-117
0
0
-117
-196
-235
0
0
0
-274
-274
-1019
-20117
-19764
-20274
-19529
-20274
-19803
-20196
-19098
-19882
-30000
-29725
-30588
-29921
-30823
-29803
-30078
-30117
-10509
-9882
-10823
-11490
-18823
-19764
-19215
-20274
-19490
-28705
-29137
-28352
-28431
-18823
-8666
-7803
-313
9568
19333
-8980
9999
-1333
-196
9960
7607
9490
11647
9529
-196
10235
7686
862
9490
8470
-10745
-18156
-18274
-28235
-29254
-9960
-16666
-18784
-17450
-18000
-19176
-8627
19294
17411
19764
18784
21176
20980
21529
20392
27960
30000
29882
28156
29372
29372
19725
52823
46392
38588
37490
39254
20862
20431
19215
9450
-3333
-38392
-39333
-50078
-45921
-49098
-49960
-49058
-39803
-39450
-50235
-60274
-47450
-40392
-39254
-49843
-48705
-49529
-49803
-40627
-39450
-39372
-29843
-22000
-19372
-19921
-21843
-20039
-20666
-1294
-313
-745
-352
627
-9882
-10509
-10039
-9607
-10000
0
-549
-235
-156
-470
-470
-39
784
117
-549
156
-509
-549
9686
-509
196
0
-274
-39
235
-196
-39
156
0
-745
0
-823
0
0
0
0
-117
-549
0
0
-901
0
-274
0
0
0
0
0
0
0
0
0
0
0
0
0
0
0
0
0
0
0
0
0
0
0
0
0
0
0
0
0
0
0
0
0
0
0
0
0
0
0
0
0
0
0
0
0
0
0
0
0
0
0
0
0
0
0
0
0
0
0
0
0
0
0
0
0
0
-470
0
0
0
0
-470
0
0
-39
-39
0
-313
0
-784
0
-117
-235
-352
-117
-117
-549
-117
-1254
-39
-235
-274
-18156
-20392
-18705
-19725
-19882
-20627
-20000
-20392
-20117
-29960
-30117
-30078
-30078
-29843
-30470
-30039
-29764
-10274
-10549
-9725
-19215
-19372
-20431
-19098
-19529
-19215
-29686
-31137
-9725
-10392
-1294
9725
12666
10705
10196
-17764
-1254
78
980
7333
8784
13411
9450
-1960
10745
9647
1254
39
-1098
-235
117
1294
-20235
-20235
-17098
-18431
-19490
-18313
-6901
-8745
-17921
-19019
1803
10117
20627
17490
20392
19490
19215
20078
19764
20470
19019
38862
49607
29568
19960
20549
46862
48862
48666
39019
39529
27176
19803
18980
19764
0
-31529
-48941
-48039
-51294
-49176
-49725
-41647
-39607
-38941
-42274
-40392
-49098
-49882
-48941
-49568
-39254
-38980
-39294
-38745
-39568
-39019
-29372
-19843
-20313
-19647
-21098
-19882
-10588
-10941
-901
-10901
-19803
-20000
-19490
-19568
-10549
-10235
-10705
-9803
-235
-352
-1019
0
-470
-509
-235
-705
274
-235
117
0
9568
9529
9529
-78
313
-78
-313
549
-10000
-10000
-10000
-9294
-10000
-9764
-10000
-10000
-705
-196
0
-235
-39
0
0
-196
0
-156
0
0
0
0
0
0
0
0
0
0
0
0
0
0
0
0
0
0
0
0
0
0
0
0
0
0
0
0
0
0
0
0
0
0
0
0
0
0
0
0
0
0
0
0
0
0
0
0
0
0
0
0
0
0
0
0
0
0
0
0
0
0
0
0
0
0
-156
0
-196
0
-588
-352
-196
-509
0
-10000
-9686
-10000
-8823
-10000
-117
-117
0
0
0
-39
0
0
274
-1137
-235
-20078
-20313
-20000
-19647
-20235
-20000
-21450
-19764
-20509
-29686
-40000
-38666
-39568
-39254
-39960
-40156
-38509
-20000
-22666
-28980
-30431
-28627
-19215
-20431
-18745
-10039
941
235
0
10705
9294
156
-1647
8666
-352
-1490
1294
-666
9607
10431
-509
8588
-2745
3725
313
-11450
-1960
274
-1137
-1450
784
-10392
-10235
-20078
-20470
-8078
-20392
-18588
-20313
-30039
-19803
470
-196
19254
20588
19176
30901
29137
31333
28509
29294
29843
39647
37882
48862
39529
38274
19411
20196
47764
49450
38823
39568
28941
29058
28470
8470
10156
-29725
-39019
-48549
-49176
-49254
-40901
-41411
-49490
-50509
-39725
-39921
-49450
-49490
-50039
-49686
-49490
-49411
-49529
-48901
-50313
-49686
-40745
-30549
-30627
-30509
-20705
-20431
-31568
-29490
-20941
-18941
-20313
-19725
-20313
-19490
-20039
-19607
-19372
-20470
-10000
0
-352
-901
-745
-352
78
196
-196
0
-823
235
9647
10000
9490
0
-9921
-9843
-9647
-10000
-9254
-9647
-10000
-10000
-9568
-10000
-9254
-10000
-9686
-9607
-9607
0
0
-627
0
-392
0
-78
0
0
0
0
0
0
0
0
0
0
0
0
0
0
0
0
0
0
0
0
0
0
0
0
0
0
0
0
0
0
0
0
0
0
0
0
0
0
0
0
0
0
0
0
0
0
0
0
0
0
0
0
0
0
0
0
0
0
0
0
0
0
0
0
-470
0
-274
-78
0
-627
0
0
-9921
-9882
-9411
-10000
-10000
-10000
-10000
-9176
-10000
-10000
-10196
-10235
-10470
-10000
-11411
-10000
-10313
-10549
-18980
-38980
-39411
-39843
-38745
-39137
-39921
-39333
-30156
-29686
-40235
-40000
-40901
-40274
-39882
-38901
-39686
-22235
-20470
-29803
-31058
-39411
-40392
-29058
-9607
-11294
-10274
-10392
-1176
9843
8745
10000
10627
18862
21490
9686
9450
9803
20117
28666
29058
20039
57450
58745
56117
49803
49960
49725
38078
40196
40823
30666
29803
30823
20156
19098
18274
18156
21137
-40235
-35176
-9372
-862
10980
9960
18235
20823
19568
30000
29568
29843
39725
37098
40039
39686
39843
38039
49098
48745
51294
57372
58156
30117
26901
20000
9999
-1372
11098
8196
-38000
-51019
-50431
-57411
-58470
-59960
-57843
-60392
-48901
-50431
-39411
-30862
-20901
-20235
-20039
-20039
-39372
-39529
-39647
-39176
-29764
-30078
-39176
-29725
-29215
-31411
-39058
-39411
-39882
-39137
-30862
-29411
-29647
-29921
-29803
-30431
-29411
-20549
-19019
-10901
-10156
-8901
-10509
0
-274
-78
156
-1294
0
156
-10000
-431
-352
-196
352
-9960
-9764
-8666
-9803
-10000
-9764
-9490
-10000
-9803
-10000
-10000
-10000
-9921
-10000
-10000
-10000
-10000
-117
0
0
-196
0
0
0
0
0
0
0
0
0
0
0
0
0
0
0
0
0
0
0
0
0
0
0
0
0
0
0
0
0
0
0
0
0
0
0
0
0
0
0
0
0
0
0
0
0
0
0
0
0
0
0
0
0
0
0
0
0
0
0
0
0
0
0
0
0
0
-117
0
0
-392
-10000
-9411
-10000
-9960
-9960
-10000
-10000
-9450
-10000
-9960
-10000
-10156
-9960
-10196
-9960
-9960
-10078
-19725
-19960
-20078
-19529
-20078
-39568
-39372
-39607
-39098
-30313
-29647
-30392
-29803
-30274
-39607
-40156
-39921
-40078
-39568
-40196
-38470
-20352
-30078
-30627
-39686
-29960
-9921
-9843
-10352
196
-235
-20156
-9960
-588
9490
10823
9529
352
19215
7882
20274
28117
19490
18862
58509
58980
49803
49333
38784
37529
39843
39372
39960
40549
29647
29372
22392
20000
9137
20588
7725
705
823
29490
49294
49137
745
7843
19921
30980
29686
18666
20705
19529
29647
29647
30039
38823
30235
29529
38823
30627
29529
38431
70000
69254
29960
28705
21019
19568
18549
20117
17098
-19882
-49843
-48705
-60274
-58313
-49725
-49843
-39294
-40705
-30235
-30980
-30235
-30235
-19960
-20901
-20431
-19529
-21647
-30000
-38666
-40000
-50078
-40039
-30901
-30666
-30156
-31254
-30078
-40196
-39607
-29921
-30470
-29843
-29882
-29960
-29607
-30039
-29254
-20549
-9490
-10509
-10000
-10823
-10078
-10117
313
-39
-39
-10235
-9411
-509
0
-78
78
0
156
-10000
-9921
-9647
-9882
-9764
-10000
-9803
-10000
-9960
-9686
-9921
-10000
-9960
-9921
-9803
-9686
-10000
0
0
-509
0
0
0
0
0
0
0
0
0
0
0
0
0
0
0
0
0
0
0
0
0
0
0
0
0
0
0
0
0
0
0
0
0
0
0
0
0
0
0
0
0
0
0
0
0
0
0
0
0
0
0
0
0
0
0
0
0
0
-431
0
-78
-352
-39
-235
0
-509
0
-235
0
-9960
-10000
-9803
-9882
-10000
-10313
-10039
-10117
-10078
-10274
-10000
-10000
-10509
-10000
-10235
-10000
-19960
-20000
-19803
-19882
-20000
-20431
-20392
-39843
-39333
-39764
-30901
-29921
-30352
-29960
-29450
-30156
-39607
-39490
-40235
-39882
-39882
-40901
-38705
-29647
-29568
-30000
-20039
-10980
352
-745
-9333
-10078
-10901
-9490
-9921
-9725
-901
470
20196
17333
-196
21999
19137
19843
21411
57058
49215
29921
31019
17372
40039
38588
40078
39294
40941
38352
40039
40039
19725
21019
30313
19843
9882
117
39725
38117
39254
40196
39882
8980
8862
18588
20431
39882
37450
30156
30196
30470
29529
30313
19607
8823
21137
29764
30352
30156
60196
58196
50156
29725
30666
28627
29137
29254
18705
-19098
-49137
-60509
-39411
-47333
-49882
-30078
-30627
-30156
-30588
-30901
-30156
-20352
-30117
-19215
-21254
-28901
-30196
-19372
-20588
-39843
-39568
-38980
-39176
-29921
-29294
-29607
-29764
-30352
-39686
-30470
-29450
-30392
-29725
-29607
-29960
-29803
-30156
-19960
-10745
-10000
-10470
-10549
-10352
-10039
-10313
-9490
-10000
-9647
-10000
274
-78
78
-39
-39
0
0
-10000
-10000
-10000
-10000
-10000
-10000
-10000
-10000
-10000
-10000
-10000
-10000
-10000
-9490
-10000
-10000
0
-627
0
0
0
0
0
0
0
0
0
0
0
0
0
0
0
0
0
0
0
0
0
0
0
0
0
0
0
0
0
0
0
0
0
0
0
0
0
0
0
0
0
0
0
0
0
0
0
0
0
0
0
0
0
0
0
0
0
0
-431
0
-156
0
-78
0
0
-509
0
-156
-588
-9411
-10000
-9686
-9803
-10000
-10352
-10078
-10000
-10392
-10039
-10000
-10313
-10078
-10000
-10156
-10588
-19411
-20000
-19686
-19803
-20000
-19882
-20000
-40431
-39137
-40745
-30196
-29058
-30392
-30000
-29686
-30588
-29215
-30274
-40000
-37803
-39568
-38666
-40745
-21019
-30431
-22392
-31254
-10941
-745
-10470
-8196
-11568
-8039
-10196
-18156
-10470
-11803
-10392
9882
18509
10235
19058
28039
21215
19803
56862
49686
38823
30313
29882
28313
30196
29843
38470
38745
39490
40078
39803
29921
31647
19882
18941
19372
11450
30313
21098
12078
21019
18705
36745
59921
17607
24352
20627
38862
37568
48470
38901
39333
40196
9725
8901
12235
18941
20196
21254
20941
60745
58392
48000
48509
27098
30235
30352
20431
20549
-18549
-37568
-35568
-38705
-39411
-39803
-30196
-29294
-30588
-28980
-30862
-29882
-20078
-20117
-38980
-40431
-28980
-21058
-20117
-28705
-30627
-29843
-38666
-39137
-38431
-30352
-29725
-30196
-28588
-30000
-30078
-30313
-30078
-30156
-30196
-28352
-29647
-29882
-30078
-10156
-11333
-11529
-10196
-10313
-10352
-19176
-9803
-9921
-10117
-8862
392
-313
-78
-39
-39
0
0
-10000
-10000
-10000
-10000
-10000
-10000
-10000
-10000
-10000
-10000
-10000
-10000
-9568
-10000
-9333
-9725
-10000
0
-196
-156
0
0
0
0
0
0
0
0
0
0
0
0
0
0
0
0
0
0
0
0
0
0
0
0
0
0
0
0
0
0
0
0
0
0
0
0
0
0
0
0
0
0
0
0
0
0
0
0
0
0
0
0
0
0
0
0
0
-235
0
-352
-196
-313
-352
0
0
-588
-9490
-10000
-10000
-9843
-10000
-10000
-10000
-10352
-10000
-10039
-10000
-10352
-10117
-10000
-10000
-10588
-19490
-20000
-20000
-19843
-20000
-20000
-20196
-21725
-39450
-39450
-29803
-30627
-30588
-30000
-30431
-30235
-29921
-30313
-30039
-39803
-40980
-40352
-40980
-39333
-29411
-19686
-30196
-19686
-1568
-11999
-9882
-20196
-18352
-20274
-10117
-21294
-9058
-9882
-313
1843
-12156
10705
17137
10313
12392
58470
49529
38431
39960
38980
31686
29921
28862
28431
30313
39215
39294
38941
29372
28745
30862
9333
1607
11529
39803
38156
38705
19764
17490
19843
48549
56862
48313
38980
28745
30509
38274
41137
38392
49607
18745
11686
12039
10000
12627
19803
-980
11098
38039
50196
49764
48705
40745
18000
20509
19137
-8980
-9450
-29882
-28117
-29843
-38549
-30352
-31882
-30156
-29098
-31450
-30509
-30196
-20117
-30039
-39529
-39215
-30470
-21058
-28470
-31294
-19607
-20980
-29725
-38745
-38627
-39372
-29568
-29450
-30549
-30000
-29843
-30000
-29568
-28823
-29529
-28941
-31215
-30392
-29921
-10980
-10549
-10901
-11098
-10666
-20352
-19960
-19450
-10000
-9568
-10000
-235
39
274
-39
-39
0
0
-10000
-10000
-10000
-10000
-10000
-10000
-10000
-10000
-10000
-10000
-10000
-10000
-9725
-10000
-9960
-9921
-9764
-1098
0
0
0
0
0
0
0
0
0
0
0
0
0
0
0
0
0
0
0
0
0
0
0
0
0
0
0
0
0
0
0
0
0
0
0
0
0
0
0
0
0
0
0
0
0
0
0
0
0
0
0
0
0
0
0
0
0
0
-509
0
-470
-745
0
0
0
-666
-784
-9921
-9764
-9803
-9450
-10000
-9882
-9921
-10000
-10274
-10352
-10000
-10549
-10000
-10000
-10666
-10784
-19921
-19764
-19803
-19450
-20000
-19882
-19921
-20784
-19960
-39372
-40627
-30000
-29803
-29490
-31019
-29843
-29882
-29921
-30196
-30431
-29372
-40000
-39098
-39058
-21764
-19490
-20823
-20509
-745
-11647
-18666
-19686
-18666
-20352
-11803
-8941
-10196
-19529
-32980
-9450
-20313
-11490
2705
11450
-627
-1725
28156
19058
18549
19882
28784
26117
20823
20352
19411
19725
20627
19960
18862
22039
18470
10588
10745
9803
8980
39568
38901
40431
40823
39529
49333
48196
59803
58784
42666
35137
40588
19607
18117
21568
19921
9372
19176
11843
941
-10901
-8352
1843
27215
31411
69529
47450
50588
36862
38901
15686
21019
-10352
-1254
-16862
-30039
-29176
-19176
-20549
-29764
-30470
-30901
-30235
-29882
-29843
-30745
-30039
-19137
-19490
-40666
-38156
-29764
-30509
-19960
-18666
-19725
-30156
-40078
-39490
-29372
-29843
-29333
-30078
-21921
-29647
-29764
-30156
-31294
-29607
-28705
-30235
-30039
-10588
-10901
-11137
-10000
-20784
-20039
-19647
-19254
-9568
-9843
-9411
-156
0
0
-39
-39
0
0
-10000
-10000
-10000
-10000
-10000
-10000
-10000
-10000
-10000
-10000
-10000
-10000
-10000
-9686
-10000
-10000
-9176
0
-78
0
0
0
0
0
0
0
0
0
0
0
0
0
0
0
0
0
0
0
0
0
0
0
0
0
0
0
0
0
0
0
0
0
0
0
0
0
0
0
0
0
0
0
0
0
0
0
0
0
0
0
0
0
0
0
0
0
-156
-352
-117
0
-156
0
-39
0
-9372
-9529
-10000
-10000
-9490
-10000
-9882
-9725
-10000
-10196
-10000
-10000
-10000
-10000
-10588
-10000
-19372
-19529
-20000
-20000
-19490
-20000
-19882
-19725
-20117
-20823
-40235
-28980
-30705
-29686
-30039
-30000
-30352
-29921
-30352
-29803
-30117
-30549
-30509
-41058
-9803
-18941
-12156
-10470
-10235
-11803
-21019
-20431
-20941
-20274
-10431
-27686
-19764
-18078
-28823
196
18235
2352
-666
-2313
-23215
-7098
29529
20196
20627
9921
10627
19372
20078
18745
20196
19647
20431
19607
9215
10980
11411
2156
12117
-1019
1450
22039
20431
20823
21254
18078
59254
68745
64509
59647
59294
20117
41294
38000
36627
29411
29490
20196
2156
2392
-2117
-10078
-10000
-14901
-18549
19568
26235
29764
37607
38470
27921
31529
30627
-7764
1764
1764
-8666
-20000
-9137
-10941
-20470
-20901
-30745
-30039
-30823
-40352
-20705
-20235
-20039
-29803
-30392
-28509
-40509
-39411
-19490
-20588
-20666
-19176
-29450
-37725
-39215
-39921
-28549
-29803
-20000
-19529
-19568
-30196
-30117
-28588
-29960
-29411
-30235
-18901
-11725
-20784
-19882
-20901
-19960
-20235
-19254
-19921
-10117
-9725
-10196
-509
117
-392
-39
-39
0
0
-10000
-10000
-10000
-10000
-10000
-10000
-10000
-10000
-10000
-10000
-10000
-10000
-10000
-9568
-9882
-9098
-901
-156
0
0
0
0
0
0
0
0
0
0
0
0
0
0
0
0
0
0
0
0
0
0
0
0
0
0
0
0
0
0
0
0
0
0
0
0
0
0
0
0
0
0
0
0
0
0
0
0
0
0
0
0
0
0
0
0
0
0
-78
0
0
-705
0
-901
-39
-431
-10000
-10000
-9568
-9921
-10000
-10000
-9294
-10000
-10509
-10000
-10470
-10000
-10901
-10078
-20000
-19686
-20000
-20000
-19568
-19921
-20000
-20000
-19294
-20000
-19960
-38627
-39960
-30862
-29372
-30745
-30000
-29647
-29843
-29607
-30039
-29921
-29921
-29568
-29960
-1607
-11294
-20000
-21529
-21333
-10941
-19490
-20666
-19254
-29843
-18078
-17921
-14196
-10274
-12705
10274
29019
-823
431
-7529
-29254
-19686
27607
13764
19882
7333
10627
16274
19098
20745
20000
19921
10156
11294
1372
2235
-29803
-19294
-18313
-10862
30078
29686
19882
21647
30156
30117
37529
50509
39372
57137
59803
54235
49450
19333
18588
20392
19294
11803
-549
-8431
-8823
-16392
-17607
-16980
-30235
-10078
20078
19960
28705
31529
39215
27960
39372
10862
8392
-9215
-10470
-9882
-980
-8392
-22078
-23019
-31294
-21764
-30352
-30078
-29490
-29450
-30039
-30117
-29803
-29764
-30235
-29411
-31333
-30352
-19999
-19882
-20313
-20392
-29647
-38705
-39333
-29254
-30078
-20274
-21137
-20352
-20235
-29215
-39882
-40235
-38823
-39764
-29647
-20000
-19882
-19882
-20196
-20117
-20980
-19411
-20000
-8431
-9568
-39
-39
39
-156
-39
-39
0
0
-10000
-10000
-10000
-10000
-10000
-10000
-10000
-10000
-10000
-10000
-10000
-10000
-10000
-10000
-10000
-10000
0
0
0
0
0
0
0
0
0
0
0
0
0
0
0
0
0
0
0
0
0
0
0
0
0
0
0
0
0
0
0
0
0
0
0
0
0
0
0
0
0
0
0
0
0
0
0
0
0
0
0
0
0
0
0
0
0
0
0
0
0
-78
-117
0
0
-666
0
-10000
-9372
-9921
-10000
-9882
-9803
-9568
-10000
-9803
-10000
-10000
-10000
-20000
-19568
-19803
-20000
-19764
-19372
-19921
-20000
-19882
-19803
-19568
-20000
-19803
-20784
-40274
-30000
-29137
-29803
-30470
-29058
-40000
-39647
-40313
-39686
-39450
-40235
-30392
-31254
-10549
-20313
-22509
-20431
-10980
-19843
-29647
-41411
-30235
-27411
-30549
-19843
-18470
352
26509
19137
-21058
-21176
-16549
-31686
-27294
9921
-10078
3960
-3176
1254
1529
10392
10470
-784
-1607
1372
-78
509
-10000
-17254
-16901
-18039
-9333
20901
20823
12549
21725
18705
21294
40235
38862
39725
39607
38078
59921
45764
38745
46196
-9607
-8509
-117
1294
-18862
-8078
-9333
-8470
-980
509
1725
11176
18509
21294
18666
18784
28509
-7882
-10784
10274
20078
19647
745
588
-392
-11176
-8705
-10705
-10274
-11450
-20117
-40352
-41137
-39176
-30980
-29372
-20000
-19098
-19999
-20117
-19960
-20901
-29921
-20549
-19176
-18039
-20274
-39215
-40156
-28588
-19725
-20039
-20156
-20235
-39176
-39921
-49058
-46745
-49647
-40000
-40156
-20980
-20666
-20352
-20274
-20666
-19960
-19137
-10000
-10078
-9921
-196
39
0
-78
-39
-39
0
0
-10000
-10000
-10000
-10000
-10000
-10000
-10000
-10000
-10000
-10000
-10000
-10000
-9725
-9960
-9960
0
-705
0
0
-235
0
0
0
0
0
0
0
0
0
0
0
0
0
0
0
0
0
0
0
0
0
0
0
0
0
0
0
0
0
0
0
0
0
0
0
0
0
0
0
0
0
0
0
0
0
0
0
0
0
0
0
0
0
0
0
0
-117
0
0
-313
-39
0
-10000
-9960
-10000
-9882
-9803
-10000
-9333
-10000
-9921
-9960
-20000
-20000
-20000
-19960
-20000
-20000
-19647
-20000
-20000
-19882
-19803
-20000
-19333
-20000
-19921
-19960
-40039
-39529
-39647
-40078
-39764
-39882
-40078
-39725
-40274
-38823
-40705
-29960
-30000
-29254
-21686
-29803
-40509
-39333
-41254
-19372
-30117
-40352
-28078
-31215
-20588
1372
-9960
-1843
-39
20313
-20588
-19529
-29333
-30117
-38509
10352
666
-549
-470
1176
-39
8274
19529
19647
19333
10784
117
-10627
941
-18196
-18980
1803
-1411
11529
10235
20901
19921
19529
10901
20470
19647
19254
20235
19372
29647
19725
41058
29215
20156
-19019
-20000
-19568
-29176
-10117
-19960
-19137
1215
-274
196
9450
18705
27647
19843
20470
27921
666
784
156
-745
9568
11098
-11098
-627
8941
-1176
-19725
-40000
-41333
-40666
-30392
-40784
-49882
-48784
-40392
-39725
-30313
-29411
-20784
-20156
-19921
-30588
-29686
-29568
-19921
-784
-392
235
-1450
196
-980
-10745
-9764
-11294
-19843
-20196
-20078
-10705
-38823
-39725
-29725
-30156
-20000
-20196
-20196
-19960
-21176
-20000
-9137
-10000
-9843
156
-117
-78
156
-39
-39
0
0
-10000
-10000
-10000
-10000
-10000
-10000
-10000
-10000
-10000
-10000
-10000
-10000
-10000
-9803
-196
0
0
-431
-78
0
0
0
0
0
0
0
0
0
0
0
0
0
0
0
0
0
0
0
0
0
0
0
0
0
0
0
0
0
0
0
0
0
0
0
0
0
0
0
0
0
0
0
0
0
0
0
0
0
0
0
0
0
0
0
0
0
-39
0
0
-313
0
-9843
-10000
-9372
-10000
-10235
-10000
-10000
-10196
-10000
-20000
-19882
-20431
-20000
-20196
-20392
-20000
-20000
-20039
-20078
-20156
-20117
-20980
-19333
-20039
-20196
-19764
-30784
-50156
-39843
-40000
-40470
-39843
-40705
-40000
-40352
-40196
-30352
-30078
-30431
-48941
-49803
-31960
-38980
-29686
-19607
-19137
-29490
-29529
-20509
-29254
-9215
-9372
-313
-78
235
18745
18941
-20156
-29843
745
10078
666
-9803
-9254
-9450
313
-39
10509
9215
31921
30470
20431
20000
9450
9686
-8666
19647
20392
19372
40156
27490
30627
28666
29843
29882
49019
40509
29529
20431
9607
10235
9882
10313
-1999
11058
196
8588
-19098
-30196
-19254
-18588
-9764
-19019
-19058
-19725
-1411
705
38039
40431
29568
31450
1686
-862
10352
10039
10823
9411
10862
19764
10117
9843
-7882
-10392
-19843
-38509
-38980
-38666
-39019
-30470
-48156
-40392
-30549
-28862
-29882
-9921
-627
549
431
-8392
-10039
-9647
-10156
10470
8627
313
-10392
-10039
-9960
-11490
-19019
-19490
-10156
-10196
-9019
-10431
-19176
-10431
-10039
-9411
-30000
-20196
-19215
-20235
-19098
-11137
-9254
-1137
-156
-352
-588
-392
196
-470
-196
352
-10156
-9490
-9921
-10392
-9764
-10000
-9647
-10000
-10000
-9764
-9960
-10000
0
0
0
0
0
0
0
0
0
0
0
0
0
0
0
0
0
0
0
0
0
0
0
0
0
0
0
0
0
0
0
0
0
0
0
0
0
0
0
0
0
0
0
0
0
0
0
0
0
0
0
0
0
0
0
0
0
0
0
0
0
0
0
0
-392
0
0
0
-10000
-9843
-10000
-10000
-10431
-10000
-10000
-10588
-19725
-19411
-20000
-19843
-20078
-20666
-20000
-20000
-20000
-20588
-20000
-20196
-20549
-20509
-20235
-21019
-20784
-29529
-30980
-48431
-40509
-40784
-40588
-40117
-40352
-40509
-40000
-39882
-29607
-38039
-50117
-49254
-49568
-21450
-18627
-20000
-19254
-29725
-20588
-36588
-30705
-20392
-8352
-9137
-509
-2392
1058
20627
19921
-20784
19686
-313
9960
-9764
-9568
-8588
-9647
-1176
1529
588
20666
28745
30078
18509
29529
19254
20588
-9764
20156
28509
30431
39686
38431
38549
38745
30352
38980
39176
48235
38745
30313
29529
19843
20313
10117
10156
-9764
4078
21803
28823
-20588
-19215
-17176
-17176
-16666
-29764
-9450
-7882
-11333
29843
30274
40196
47647
10274
156
11372
0
9137
10470
18549
20666
27411
11137
862
-1372
-6588
-196
-18392
-19137
-32078
-36980
-38352
-58352
-38039
-9098
-9333
-12313
-9333
-8274
313
-745
-431
-9764
-10549
0
-10431
-9803
1921
-10588
-196
-10039
-10117
-9960
-9450
-10509
-10000
-10156
-9647
-1333
-8745
-9921
-10078
-9058
-10274
-19568
-19215
-10666
-11568
-9843
313
-156
-1333
-196
0
39
-235
0
-10078
-10352
-9764
-9764
-9294
-10000
-9803
-9882
-10000
-8901
-10000
-9843
-392
0
0
0
0
0
0
0
0
0
0
0
0
0
0
0
0
0
0
0
0
0
0
0
0
0
0
0
0
0
0
0
0
0
0
0
0
0
0
0
0
0
0
0
0
0
0
0
0
0
0
0
0
0
0
0
0
0
0
0
0
0
0
0
0
0
-313
0
-9803
-10000
-9843
-9686
-10000
-10000
-10000
-10745
-19058
-20000
-20000
-19372
-20000
-20000
-20000
-20000
-20941
-20000
-20000
-20000
-20078
-20000
-20078
-20509
-20156
-29607
-29960
-50000
-49764
-40000
-40823
-40000
-40039
-39882
-40000
-29254
-40313
-39725
-50784
-48784
-48470
-39372
-29803
-10352
-21058
-29058
-39607
-37372
-29176
-18313
-9254
-8784
-705
941
1098
17568
19019
49490
19333
20705
8941
-9019
-9647
-9490
392
352
509
1411
8823
9764
20627
29176
28156
22392
17333
-549
39764
29568
28666
39411
40274
39843
39882
40392
48745
39882
50549
39333
40078
39882
31058
29450
21764
20196
-11607
-10588
-7019
18274
19843
29294
-9372
-8862
-10000
-19137
4352
-8431
-7529
-7725
20117
30431
37686
22784
20509
9215
10862
313
10196
19725
19882
10705
9254
1098
-9686
-4627
-10666
-19647
-8627
-9725
-29686
-39176
-49019
-39960
-39960
-10627
-10078
-8980
-117
156
862
8117
10588
705
-9411
745
0
-9647
274
-509
9843
-313
-9647
-9058
-11294
-9529
-10352
-9568
-10313
-9843
-10470
-20941
-18431
-18549
-20039
-19764
9098
-10274
-8666
-10509
-1450
313
-196
-78
-666
-588
235
-352
-9647
-9647
-10196
-9882
-9960
-9764
-10000
-10000
-10000
-10000
-10000
-235
0
0
0
0
0
0
0
0
0
0
0
0
0
0
0
0
0
0
0
0
0
0
0
0
0
0
0
0
0
0
0
0
0
0
0
0
0
0
0
0
0
0
0
0
0
0
0
0
0
0
0
0
0
0
0
0
0
0
0
0
0
0
0
0
0
-39
0
-10000
-10000
-9803
-10000
-10000
-9450
-10000
-10117
-20000
-19882
-19843
-20000
-20000
-19882
-20000
-20666
-20000
-20000
-20078
-20313
-20196
-20156
-21254
-20078
-20000
-30352
-30000
-28941
-49098
-49568
-40470
-40078
-40666
-40274
-40313
-31098
-40078
-40823
-49215
-49176
-48588
-39725
-40666
-19176
-10470
-29294
-38274
-28000
-38588
-20980
-19411
-8941
-1490
1294
117
19058
20039
49921
17254
19960
-745
-1882
-9607
-9450
666
1294
0
274
10196
10392
18078
29725
30235
21568
20039
9882
38823
41058
30627
29058
39568
39764
37764
37843
49725
48823
48784
38588
38784
40862
39411
39137
29921
19137
352
-9568
-10000
705
9411
8862
30588
-10470
-5803
-16196
-8196
-9686
-11372
-11098
22941
27803
28274
10627
9921
30941
21647
9215
9215
10745
9568
18980
19254
20078
78
-1098
-9803
-10235
-9529
-20862
-9019
-9450
-29882
-8941
-8431
-38235
-19333
-11176
-9254
-10470
-10235
-10156
-666
-588
-10352
-10078
-10352
-9411
-10862
-19529
-8588
-9725
9647
-9215
-20705
-19254
-19411
-19098
-10823
-9568
-9882
-9764
-19058
-20235
-19725
-18705
-8470
-10235
-20196
-20862
509
-274
-1490
-627
-156
-313
39
-196
-980
-9568
-10000
-9333
-9490
-9921
-10000
-10000
-9921
-9607
-10000
0
-78
-117
0
0
0
0
0
0
0
0
0
0
0
0
0
0
0
0
0
0
0
0
0
0
0
0
0
0
0
0
0
0
0
0
0
0
0
0
0
0
0
0
0
0
0
0
0
0
0
0
0
0
0
0
0
0
0
0
0
0
0
0
0
0
0
0
-156
0
-10000
-10000
-9647
-10000
-9803
-10000
-10274
-19372
-19686
-20000
-20000
-18901
-20000
-20000
-20117
-20000
-20392
-20549
-20078
-20000
-20431
-20000
-19607
-21882
-29764
-30000
-28980
-50000
-49294
-40509
-40313
-40470
-40313
-40235
-30470
-39725
-49960
-48078
-49686
-49490
-40627
-40784
-10980
-10549
-21921
-39019
-29254
-38509
-19647
-18588
-9529
-9411
1490
313
18078
18431
49803
56627
17333
8196
9372
2235
980
-9450
745
588
1333
352
10117
21215
21647
18980
22039
28823
30470
38274
40000
39960
29137
39215
39686
38627
39333
49215
48901
49058
39607
40039
40235
39529
39647
29411
31490
10000
10431
-1137
10313
-2392
9725
20588
19058
28862
-19098
-10784
-6901
-10352
-7529
18274
28666
31411
3333
1372
19529
21098
20980
28470
10941
10745
-509
9215
18470
19803
10156
0
-9490
-6784
-9882
-18000
-19803
-11568
9725
-1176
-78
-1254
-19568
-18980
-11607
-10156
-11137
-9529
-9176
-9137
-10901
-9607
-9568
-9607
-9058
-8509
-19019
-352
-352
-509
-9215
-9921
-10745
-9647
-9333
-10196
-10627
-10823
-9764
-20274
-19411
-10117
-11098
-9725
-39
-18666
-10235
-10627
-352
431
-862
-784
431
-588
-9647
-9725
-10784
-9333
-10000
-9490
-9882
-10000
-10000
-9960
0
-117
0
0
0
0
0
0
0
0
0
0
0
0
0
0
0
0
0
0
0
0
0
0
0
0
0
0
0
0
0
0
0
0
0
0
0
0
0
0
0
0
0
0
0
0
0
0
0
0
0
0
0
0
0
0
0
0
0
0
0
0
0
0
0
0
0
0
-78
-10000
-10000
-9333
-10000
-10000
-9764
-9450
-10000
-20000
-19921
-19921
-20000
-20000
-20000
-19568
-20039
-20000
-20235
-20000
-20000
-20078
-20000
-20078
-21333
-30000
-29529
-29843
-31019
-49137
-48823
-49607
-40313
-40235
-40549
-30196
-39843
-50000
-50470
-50235
-51098
-38352
-40000
-39529
-10745
-19019
-31686
-20235
-28470
-28941
-17372
-18705
-7254
-352
-941
20235
19176
58862
56705
10627
9960
1960
-1647
-392
39
10941
9254
10156
9725
20745
20000
10235
19058
19882
27686
10627
39960
39568
40470
38549
29137
39686
37647
39450
50235
49529
38392
40470
49333
48705
39294
30627
39647
41529
28392
20313
10509
8588
9647
0
18784
15921
10509
20392
-4666
-8941
-8784
-9529
31019
39019
30627
2745
-156
9215
11333
30196
18470
20901
11725
313
8705
10274
10549
19450
18156
11058
-10156
-9372
-9882
-10862
-2705
20745
28705
28117
9882
1058
-274
-9725
-18588
-9529
-20039
-20235
-10352
-10588
745
-9764
-9372
-9647
-9607
-11294
78
-10392
-18745
-11058
509
-10588
-9254
-10235
-9137
-10431
-10509
-9647
-705
-9215
-10235
-10470
-9333
-10470
-10000
-9764
-11725
-9098
-10039
-10274
-745
352
-470
-10156
-9490
-9490
-10000
-10000
-9686
-10274
-10000
-9568
-9294
-1411
0
0
-705
-39
0
0
0
0
0
0
0
0
0
0
0
0
0
0
0
0
0
0
0
0
0
0
0
0
0
0
0
0
0
0
0
0
0
0
0
0
0
0
0
0
0
0
0
0
0
0
0
0
0
0
0
0
0
0
0
0
0
0
0
0
0
0
0
0
0
-9647
-10000
-9647
-10000
-9490
-10000
-10000
-20000
-19607
-20000
-20000
-19019
-19921
-19607
-20000
-20000
-20705
-20000
-20000
-20666
-20000
-20000
-30000
-29803
-29882
-30666
-30392
-49450
-50000
-49529
-48627
-39882
-40705
-30666
-40745
-50431
-49843
-48352
-49647
-38274
-40470
-38901
-19843
-9843
-30509
-18980
-21568
-19137
-19019
-17333
-10000
-10588
78
20862
19137
67921
47607
39647
6431
-313
-1450
4431
-2078
627
9607
10431
20078
19882
19529
11411
20509
18941
21686
39607
39058
42549
38549
39843
40078
48078
39568
40117
47019
38666
40078
39843
49921
39725
50078
48901
40862
29490
28509
30745
29921
28745
19372
11843
8196
19372
10352
18039
11372
18274
-6352
196
37647
39568
40196
50862
20313
10980
22274
17450
30235
20784
12156
8117
1725
11568
8470
9372
19843
20235
9019
11490
1098
29254
20745
19490
18117
19686
28705
17019
10235
10313
-8862
-20627
-10078
-18627
-10352
-8784
-352
-1019
-156
-627
352
-352
549
274
-9725
-10509
-19647
-19921
-9372
-9647
-1215
-39
-588
-1215
705
78
-862
-9215
-10470
-10784
431
-274
-10549
-9529
-10588
-11254
-10117
-9686
-20627
-9803
-9294
-10156
-9372
-9490
-10470
-9450
-9960
0
-196
-313
0
0
-705
0
0
0
0
0
0
0
0
0
0
0
0
0
0
0
0
0
0
0
0
0
0
0
0
0
0
0
0
0
0
0
0
0
0
0
0
0
0
0
0
0
0
0
0
0
0
0
0
0
0
0
0
0
0
0
0
0
0
0
0
0
0
0
0
0
0
-39
-10000
-9764
-10000
-10000
-10000
-9764
-9725
-19647
-20000
-19960
-19843
-20000
-20000
-20000
-19607
-20000
-20235
-20078
-20000
-20196
-29843
-30000
-29764
-30235
-29960
-29647
-29921
-49764
-49529
-48745
-49803
-39921
-40745
-39882
-50156
-50000
-49921
-40235
-40000
-40627
-29254
-20509
-20862
-20313
-30431
-10431
-20823
-9019
-10078
-9411
156
9999
-431
21294
29254
60117
48196
11294
862
-745
10392
17803
20156
9921
19725
19568
20156
10235
10313
29921
29921
30784
38196
40235
49803
49450
39803
40823
38784
49411
37686
39764
30823
28549
29529
40000
38392
40313
39333
39803
40470
48901
39803
39176
29568
29921
18509
29254
196
19803
20627
20941
29686
39450
235
49490
51372
49725
48392
22941
29411
30274
30000
10823
10039
1803
8980
21098
18862
9999
-196
10980
10117
19882
10509
39921
29019
40078
37098
39176
31058
29019
18941
19254
-274
19254
9843
9450
941
10156
9960
117
9725
9843
9450
10000
-235
941
549
-431
862
-19411
-9882
-10078
-10901
313
-274
-1058
0
39
-705
509
-862
-9686
313
0
-588
-392
-19607
-10666
-10431
-9490
-19843
-19921
-20352
-19490
-9803
-9372
-588
39
-588
-78
-274
0
0
-117
-274
0
0
0
-274
0
0
0
0
0
0
0
0
0
0
0
0
0
0
0
0
0
0
0
0
0
0
0
0
0
0
0
0
0
0
0
0
0
0
0
0
0
0
0
0
0
0
0
0
0
0
0
0
0
0
0
0
0
0
0
0
0
0
0
0
0
0
0
0
-39
-78
-10235
-10000
-10196
-10078
-9921
-20000
-20000
-20313
-20000
-20000
-20000
-20117
-20196
-20117
-20000
-20313
-29882
-30000
-30352
-29803
-30000
-29843
-29647
-30627
-29803
-29215
-49960
-50000
-50117
-49882
-39882
-39098
-49411
-49686
-49098
-39137
-40000
-40235
-19725
-19607
-21882
-19568
-29803
-431
-2823
-9725
-10509
-10627
-28666
-30078
-39686
-11098
-1215
39607
17411
-17568
-19686
-18196
18588
22196
18745
20941
29490
19764
8156
10941
9764
10196
9137
21764
-9529
-10117
-8823
-313
-78
705
-1215
196
705
-1137
-10117
-19490
-19725
-196
11254
8627
9960
9529
9803
10627
10117
10274
235
-9294
-2274
-4901
10509
-313
23921
30000
26470
31372
49764
69098
59333
59058
61607
28745
21254
20274
30000
28588
30470
19882
9960
8941
7882
10156
10196
2313
-9137
9450
40431
50078
40000
48549
30705
48980
40000
39843
18862
19764
21294
20823
19607
10000
8705
20235
19019
20196
18117
588
156
549
784
9647
-235
588
941
9764
-9607
-235
470
-9725
-9686
-19372
-9372
-392
156
-274
549
10627
9294
-196
-274
-352
39
-19411
-9647
-9882
-19450
-19607
-9843
-9450
-10000
-9921
0
-196
0
-470
-78
0
0
0
0
0
0
0
0
0
0
0
0
0
0
0
0
0
0
0
0
0
0
0
0
0
0
0
0
0
0
0
0
0
0
0
0
0
0
0
0
0
0
0
0
0
0
0
0
0
0
0
0
0
0
0
0
0
0
0
0
0
0
0
0
0
0
0
0
0
0
0
0
0
-509
0
-10000
-10352
-9843
-10000
-10274
-20000
-20156
-20000
-20000
-20392
-20078
-20000
-20000
-20000
-30000
-28745
-30627
-29647
-30000
-29843
-30000
-30352
-30627
-29882
-29176
-50039
-59215
-48039
-50627
-49333
-49098
-50000
-49254
-50392
-39803
-31098
-21921
-19529
-21529
-28392
-20039
-30078
-30313
-18941
-27686
-49333
-40235
-25411
-30431
-28627
-2313
627
-8039
17490
-16509
-19450
-10352
-10392
-8901
-17803
-19843
-19843
-21137
-17529
-28784
-28588
-28823
10980
12392
-12039
-10313
-8588
-9960
-39
-10078
-9686
-588
313
19882
20980
9372
30392
19647
19058
18274
20941
20901
21215
11058
9686
9490
11137
-352
10274
10588
7058
-509
14862
28392
59803
88431
88235
88117
29372
19490
11176
40470
20156
23254
20823
18352
30549
29764
9411
-1294
29333
30549
27568
30588
20470
39647
38549
38274
38039
41215
29411
19725
29137
20156
38980
31098
30509
19921
23490
19764
10941
20078
11176
19215
39215
30745
18274
10666
8470
9803
10196
9960
10078
19058
10588
9568
-431
10039
10509
-156
431
-19137
-9019
-39
901
10117
8745
10274
196
-549
39
156
-509
-9529
-10117
-8745
-9882
-10117
-9372
-9294
-10000
-10000
-78
-117
0
0
0
0
0
0
0
0
0
0
0
0
0
0
0
0
0
0
0
0
0
0
0
0
0
0
0
0
0
0
0
0
0
0
0
0
0
0
0
0
0
0
0
0
0
0
0
0
0
0
0
0
0
0
0
0
0
0
0
0
0
0
0
0
0
0
0
0
0
0
0
0
0
0
0
-39
-156
-10784
-10000
-9843
-10862
-19568
-19647
-20666
-20000
-20000
-20823
-20000
-20196
-20627
-29647
-30000
-30000
-29960
-30000
-30196
-30000
-29882
-29921
-30274
-39019
-41215
-58901
-48705
-49764
-50392
-57176
-59568
-51647
-38392
-39647
-28470
-20313
-29921
-20862
-26745
-30431
-29529
-38039
-21058
-22509
-49803
-39019
-27490
-31686
-31019
-1333
-1019
-1254
28980
-980
-10352
-8941
-9450
-18627
-19607
-19137
-18901
-28784
-18509
-29333
-29843
-29450
10000
9019
9254
-9098
-10196
-10313
-19607
-9843
941
9254
18862
18980
28431
9647
28862
29215
29215
28980
20235
20117
9411
11333
8862
11411
11960
20078
9686
11921
11999
19450
862
20392
49529
86117
79568
66784
69019
40274
31372
21686
11764
-19686
20274
20078
20470
28980
28000
21333
10078
27137
27960
28901
38941
47843
40431
39450
41411
38235
30549
39490
20941
3647
9647
11137
20078
19450
19960
28666
10588
30156
20666
29411
30235
19098
39137
30392
19411
10352
11254
9529
10039
9450
11529
9372
9098
1450
9254
9490
9999
1176
352
-7960
705
9803
10274
11450
9843
9960
-745
-980
9333
10274
-78
-9803
-9490
-10000
-9019
-9490
-10000
-10000
-9333
-235
0
-196
0
-235
0
0
0
0
0
0
0
0
0
0
0
0
0
0
0
0
0
0
0
0
0
0
0
0
0
0
0
0
0
0
0
0
0
0
0
0
0
0
0
0
0
0
0
0
0
0
0
0
0
0
0
0
0
0
0
0
0
0
0
0
0
0
0
0
0
0
0
0
0
0
0
0
-39
-352
-10000
-10000
-9843
-10666
-19411
-20000
-20000
-20039
-20705
-20000
-20784
-20000
-29843
-30000
-29372
-30000
-30352
-30196
-30039
-29764
-31137
-39686
-39568
-41333
-38941
-49568
-50352
-48941
-59098
-59372
-39176
-30431
-29490
-30274
-21686
-19843
-20274
-29568
-29803
-29686
-20078
-39137
-20784
-37803
-38784
-29764
-27294
-28313
-28705
509
-12588
-6078
25254
627
-7294
-8823
-19215
-19215
-17058
-19568
-29843
-38470
-29490
-28313
-27647
11607
313
10274
-18705
-19764
-19686
-17294
-10235
9176
8901
19176
20196
29058
20156
20666
29882
30196
28588
30156
29450
18431
21254
19921
20862
20509
29411
29921
30509
28078
27803
40509
28745
29333
69882
76627
79490
76823
68039
50078
43254
38392
-9254
-15921
-19215
-18862
10431
8156
1450
7333
1411
20196
29647
39450
48156
48352
48588
39450
50078
31176
20313
10823
19372
823
1960
941
9843
20941
21882
39764
20627
29333
30588
29803
29607
31568
36862
39137
30156
18392
9686
9725
11999
9607
1098
862
11098
-666
10235
10627
10117
9529
901
9333
-9098
11019
9529
8666
10117
10352
20901
9725
10588
7490
-9450
-9725
-9568
-9647
-10156
-9098
-9725
-9803
-10000
-10000
-196
0
-705
0
0
0
0
0
0
0
0
0
0
0
0
0
0
0
0
0
0
0
0
0
0
0
0
0
0
0
0
0
0
0
0
0
0
0
0
0
0
0
0
0
0
0
0
0
0
0
0
0
0
0
0
0
0
0
0
0
0
0
0
0
0
0
0
0
0
0
0
0
0
0
0
0
-39
0
-10235
-10745
-9843
-10000
-19921
-19960
-20509
-20000
-20470
-20000
-20000
-30000
-29450
-30000
-30000
-30000
-30000
-29764
-29803
-30000
-40000
-39921
-40352
-40117
-41647
-49254
-49725
-50627
-48117
-39058
-39254
-29803
-30666
-10666
-19529
-31098
-31803
-29176
-29490
-20627
-19843
-39764
-9764
-29607
-39647
-30627
-30901
-31725
1490
-11647
-10705
-10470
-3450
-1490
-10352
-21137
-18509
-20117
-20235
-29529
-29647
-29019
-28117
-30666
-862
-901
39
-117
-20980
-27725
-20509
-20117
-8941
0
8901
19333
20470
27450
29372
29921
28666
31686
38196
39686
30156
29764
20666
22235
20823
21490
29960
20470
30274
30156
51176
27058
32000
18745
56901
88980
87960
88039
90627
39529
37372
31568
-18705
-17921
-23647
-17411
-18352
10784
470
17843
9490
18352
27490
39411
39921
39411
57921
39137
28470
30313
20196
10274
12549
21490
-117
588
2039
3725
30392
40352
29333
30156
28823
28156
29333
29607
30784
39882
39176
29803
19529
10627
9490
10823
627
156
235
313
901
10117
8549
9686
18627
10313
941
-392
9607
9411
9960
18862
19058
18470
9764
39
-9058
-9647
-8901
-9960
-8196
-9843
-10000
-9960
-9921
-9764
0
-78
0
0
0
0
0
0
0
0
0
0
0
0
0
0
0
0
0
0
0
0
0
0
0
0
0
0
0
0
0
0
0
0
0
0
0
0
0
0
0
0
0
0
0
0
0
0
0
0
0
0
0
0
0
0
0
0
0
0
0
0
0
0
0
0
0
0
0
0
0
0
0
0
0
0
-509
-313
-10000
-10000
-10274
-20000
-19647
-20000
-20000
-20588
-20000
-20000
-30000
-29647
-30000
-29607
-30000
-29058
-30470
-29882
-30000
-40000
-39803
-39764
-40078
-39450
-48705
-50901
-41176
-49490
-40745
-40431
-39960
-30039
-29372
-19215
-30980
-29333
-30000
-30431
-19372
-20705
-19607
-18588
-21490
-31607
-18980
-28470
-28941
-27058
-11294
-8039
-12509
29019
-2549
-7568
-17058
-18431
-17686
-20196
-18196
-28078
-38941
-29960
-29137
-28784
-1450
1137
8431
-19411
-29215
-19843
-18862
-9568
-117
1333
9176
20235
16313
19450
38745
30588
28117
38352
39137
29411
29490
19607
19450
13137
20392
39372
20352
30039
29450
50627
27960
29372
39019
68784
70745
88549
84862
88392
83372
50431
39960
10588
1490
-8588
-15764
-29176
-20862
-17254
-29215
9607
20156
19921
37529
48980
48666
39686
39529
21568
19803
30196
29137
20235
10509
10705
21254
1372
1568
8549
30705
39843
40039
27803
30549
30039
29686
28862
28509
39294
40039
29333
30274
19176
10470
-313
1098
313
-470
10000
-1333
9843
10117
19764
19764
20196
9882
1725
10431
19529
19529
19568
19411
19882
8666
313
-9058
-10000
-8901
-10823
-9098
-10274
-9725
-9411
-10000
-10000
-39
-196
-509
-313
0
0
0
0
0
0
0
0
0
0
0
0
0
0
0
0
0
0
0
0
0
0
0
0
0
0
0
0
0
0
0
0
0
0
0
0
0
0
0
0
0
0
0
0
0
0
0
0
0
0
0
0
0
0
0
0
0
0
0
0
0
0
0
0
0
0
0
0
0
0
0
0
-39
0
-10274
-10117
-9843
-20000
-19921
-19882
-20274
-20117
-20117
-20313
-29450
-29803
-29960
-29960
-29921
-30941
-30000
-30078
-39529
-39411
-40000
-40000
-39490
-41686
-48352
-39686
-50000
-39215
-40431
-38392
-39607
-31568
-30666
-30823
-30941
-29882
-30196
-20431
-20509
-19607
-21803
-1725
-18980
-10549
-20784
-20784
-30549
-12274
-8156
-9764
-11058
29803
-11098
-13137
-9411
-20117
-20039
-18862
-29686
-39019
-29490
-29568
-29921
-29686
-392
9215
1215
-19607
-16627
-19372
-9607
-9803
666
8196
9647
8627
28235
38941
39137
30039
39960
28666
19294
19254
19333
21411
21568
29882
30823
40745
30431
49803
57843
47960
32156
20078
29450
79764
69215
69607
69058
88274
43490
40117
40470
13999
9882
2666
980
1568
-8274
-10000
-509
10588
49098
48666
48627
49568
50235
37450
31254
29647
27960
30627
30156
29450
20941
13999
11725
10352
10705
549
20941
39803
37450
30980
28941
30196
29490
30588
31098
28705
38666
29294
30235
20431
11529
-196
1215
-431
392
9333
666
9333
19333
18627
19607
19137
18745
-8235
9411
19568
19686
19568
18745
20274
10039
-1098
-9607
-9058
-9843
-8980
-10078
-8431
-9764
-10000
-9411
-9882
-509
0
0
-39
0
0
0
0
0
0
0
0
0
0
0
0
0
0
0
0
0
0
0
0
0
0
0
0
0
0
0
0
0
0
0
0
0
0
0
0
0
0
0
0
0
0
0
0
0
0
0
0
0
0
0
0
0
0
0
0
0
0
0
0
0
0
0
0
0
0
0
0
0
0
0
0
-156
0
-10392
-10000
-9843
-20000
-19803
-20000
-20000
-20000
-20039
-20000
-30000
-30000
-29882
-30000
-30274
-30000
-39843
-39921
-39882
-40000
-39764
-39725
-40078
-29215
-40549
-49882
-39843
-41254
-38549
-40588
-39960
-40000
-30352
-30156
-29490
-30745
-20235
-20196
-20313
-20078
-9450
-11098
-20745
-10588
-10000
-19372
-2313
39
-1333
-20156
29098
-9647
-11098
-9098
-10078
-7803
-19882
-29568
-28588
-29647
-28745
-37254
-30078
-38588
-9490
-19882
-31019
-28627
-20039
-18588
-29568
-8784
7725
10980
9333
28549
29607
28627
40235
27686
20588
11372
8823
20313
20901
27568
29686
40588
59137
59098
51294
49098
50431
39960
18705
21921
56745
70901
77333
71450
57882
21960
40078
41058
10941
11490
-1254
-7294
3960
117
-705
20117
10078
9568
-627
666
29294
29450
30509
28980
29450
31019
29921
29019
31333
48235
49647
39529
20431
20274
11647
1019
9450
30392
39372
48274
30588
29372
29647
29019
29725
29568
39764
40235
19568
10117
19960
11176
9960
862
431
-274
9529
10196
18705
19803
19921
19803
29882
9882
10313
20117
19215
20274
10823
9568
9803
8980
-9372
-9960
-9921
-9921
-9686
-9960
-10000
-9529
-10000
-10000
0
0
-588
0
0
0
0
0
0
0
0
0
0
0
0
0
0
0
0
0
0
0
0
0
0
0
0
0
0
0
0
0
0
0
0
0
0
0
0
0
0
0
0
0
0
0
0
0
0
0
0
0
0
0
0
0
0
0
0
0
0
0
0
0
0
0
0
0
0
0
0
0
0
0
0
0
-352
0
-10000
-10156
-19450
-20000
-19411
-20000
-20078
-20000
-20000
-20666
-29921
-30078
-30000
-29725
-29803
-30549
-40313
-39882
-40784
-40117
-39294
-40000
-29647
-20392
-49372
-39803
-39647
-40509
-49176
-50000
-49803
-48666
-30392
-30941
-29490
-20862
-20000
-19607
-18039
-10666
-19176
-29882
627
-11686
-8039
-9137
10078
9294
-10039
-10705
30784
313
1137
10039
8196
784
-1176
-18627
-20392
-19058
-30392
-37960
-30705
-49058
-10274
-28196
-29529
-8901
-10078
-19372
-10588
-9490
10627
11333
-588
431
-1843
20039
39294
20823
20588
19411
-10352
-8901
-9607
19843
68941
70078
69058
69019
59490
39372
40549
31411
18431
48313
58509
59882
60313
18666
21411
8823
8941
-17843
-9960
-7843
9725
21098
9019
11254
20196
20039
10588
-8823
588
1098
-274
549
40352
40627
39686
40313
40588
49450
39960
39960
39215
39411
39333
38588
30745
588
10901
20313
40745
40352
40156
29803
31254
30980
29960
30000
39058
39803
28941
20039
9411
20392
9764
10078
10745
10039
10862
9411
30000
29843
28784
29764
30000
29372
-9450
431
9921
10431
10823
9686
9294
9921
-10352
-9529
-9764
-9960
-9882
-9058
-9960
-10039
-9529
-10039
-39
-117
-78
-117
0
-431
0
0
-313
0
-196
-78
0
0
0
0
0
0
0
0
0
0
0
0
0
0
0
0
0
0
0
0
0
0
0
0
0
0
0
0
0
0
0
0
0
0
0
0
0
0
0
0
0
0
0
0
0
0
0
0
0
0
0
0
0
0
0
0
0
0
0
0
0
0
0
0
0
-1372
-9568
-10196
-19725
-19294
-20000
-19372
-20274
-20431
-20274
-30000
-29529
-29647
-30705
-30078
-30627
-39882
-38627
-40000
-40156
-39960
-39647
-30196
-19921
-31058
-39764
-40705
-47058
-49960
-50156
-48980
-50745
-38549
-40000
-39882
-29843
-21686
-11568
-10039
-9921
-30039
-16666
-15686
-3215
-9921
-8509
7568
-1254
2509
-941
39647
35568
21215
19607
17686
11411
-431
-1725
-9019
-30078
-27921
-30352
-31176
-38549
-29647
-10117
-9450
-10156
-9333
-9529
235
-470
-9843
509
-1294
-1019
10313
8901
11176
20078
28980
-9960
1372
2549
20039
29647
20156
20470
29372
30470
71568
50392
49294
34666
10470
37725
27215
823
9764
9333
10196
7686
-9137
1137
-10705
-8431
-1333
509
2705
-8705
-549
274
274
2078
9647
9372
2274
-431
2274
823
10470
10235
10039
10235
19529
21960
10039
11254
10588
10627
32274
27333
-156
2705
8862
30078
29215
29254
20745
10235
8745
20509
20470
38980
39843
29803
19803
30078
28705
9843
20196
20274
10352
10039
1764
19843
20039
11019
9372
10313
11686
-10627
-8196
-9333
-1333
0
823
-39
-2117
-8862
-19019
-20000
-19607
-19176
-9607
-9960
-10000
-10000
-9529
-627
-588
-39
0
-235
0
-156
-117
0
-392
0
-235
0
0
0
0
0
0
0
0
0
0
0
0
0
0
0
0
0
0
0
0
0
0
0
0
0
0
0
0
0
0
0
0
0
0
0
0
0
0
0
0
0
0
0
0
0
0
0
0
0
0
0
0
0
0
0
0
0
0
0
0
0
0
0
0
-156
-156
-10000
-19333
-19333
-20000
-19372
-20000
-20235
-20745
-20039
-29490
-30000
-30627
-30000
-29725
-39058
-39607
-40274
-39764
-39098
-40235
-30862
-20392
-29490
-48392
-47333
-49921
-49137
-49098
-48784
-50235
-49686
-39450
-41764
-39058
-22627
-19764
-19019
-49803
-40431
-29098
-17137
-30470
2078
-10313
9411
13999
1411
-1411
-10823
40313
39058
10313
-2588
2313
-1215
-509
-8352
-20039
-29137
-28784
-29529
-38117
-31490
-37215
-40705
-11803
-9254
8274
-823
-10627
-8509
588
-78
18705
10470
18627
19137
6980
9058
-7058
-10470
-509
9294
9686
-235
2470
10039
11725
18784
274
-235
-17960
12039
21450
8745
12352
18941
21254
21019
0
-9333
-9803
-8901
-18352
-9999
-18470
-18509
-28196
-19411
-28705
-19176
-7686
10627
10549
509
-8588
-10705
-8901
-9725
-7764
1254
-313
1411
10901
9607
10156
-1803
2274
-745
-1490
-6235
19058
9725
10352
20745
30627
29843
28941
9333
21098
11647
10313
29490
38549
27607
19372
18588
19254
28588
9764
19607
20470
9882
549
-9137
10156
9215
10745
9137
10352
1529
-10039
-8352
-8980
549
196
588
9921
-9294
-20274
-18901
-19333
-18941
-20000
-20000
-19450
-20000
-20000
-10000
-10000
-10000
-10196
-9568
-117
0
0
0
-313
-470
-196
0
0
0
0
0
0
0
0
0
0
0
0
0
0
0
0
0
0
0
0
0
0
0
0
0
0
0
0
0
0
0
0
0
0
0
0
0
0
0
0
0
0
0
0
0
0
0
0
0
0
0
0
0
0
0
0
0
0
0
0
0
0
0
0
0
-784
-20000
-19803
-20000
-19647
-19647
-19490
-20117
-20156
-20627
-30000
-30000
-30000
-30196
-40000
-39882
-39960
-40000
-39372
-30862
-30156
-20117
-29607
-29607
-50549
-50509
-50000
-50313
-50235
-38313
-48666
-39137
-39607
-39333
-20862
-20235
-20235
-51058
-39921
-38941
-19294
-20745
-18627
-31411
-18901
2627
-941
862
-10666
21450
39137
39529
8549
-196
-2196
-1019
-19254
-19725
-18039
-9607
-117
-18470
-31254
-29058
-38078
-40039
-28352
-666
-9803
-19411
-19372
-10588
-1176
8156
11294
28235
19294
19254
10980
11058
-19058
-10156
-7372
-8274
-9686
-7333
-1098
9607
11490
2039
-18313
21764
19764
22117
20039
20823
18196
18156
11333
-705
-1450
509
-1686
-10039
235
39
823
-18156
-39764
-27686
-30470
-26941
-17215
-18627
-1372
-1019
-8901
-117
-392
-7725
-10078
-7529
-39
313
10823
8627
11490
10627
-627
3411
549
8980
-10901
9215
19568
20941
-352
11607
10941
11803
-352
-431
20392
28980
18196
21019
21215
29176
29764
29686
28470
21372
20000
9647
-274
-9529
549
11215
10941
11333
10156
9647
-8627
-10000
-9411
0
431
-705
10000
-10745
-19568
-19843
-19137
-18705
-19568
-19843
-19686
-19882
-19882
-9882
-10000
-9882
-9921
-10000
-10000
-10000
-9843
-980
0
0
0
0
0
0
0
0
0
0
0
0
0
0
0
0
0
0
0
0
0
0
0
0
0
0
0
0
0
0
0
0
0
0
0
0
0
0
0
0
0
0
0
0
0
0
0
0
0
0
0
0
0
0
0
0
0
0
0
0
0
0
0
0
0
0
0
-117
-235
-19333
-19764
-19960
-18980
-19647
-19725
-20431
-20000
-20196
-29764
-30078
-30000
-29686
-40000
-39450
-39137
-39568
-30039
-29450
-19921
-30745
-30235
-39490
-46901
-50156
-39019
-28196
-29960
-39490
-31176
-51725
-49019
-48392
-30039
-28274
-50392
-35725
-39607
-18745
-18549
-20156
-36901
-29764
392
-274
3058
-10235
30196
46901
39450
37490
-78
-235
-8980
-19137
-19882
-1215
8431
10705
-745
-19686
-8627
-30431
-30666
-18078
-18392
-19921
-8823
-19921
-1490
-431
10549
19803
17294
19882
17960
8470
26745
-29686
-28588
-10549
-19333
-16862
-21254
3215
1098
3450
9254
1999
23294
11058
9294
20666
21215
18313
30823
19137
18901
352
2705
274
-8431
-10117
-156
-8196
-11294
-9333
-18705
-9215
-8941
-29843
-29019
-19607
-27960
-196
-6470
-470
705
29529
-10431
-9843
-9568
-509
11960
666
9372
10392
10823
-1607
352
588
941
-18078
-78
10784
2313
9647
20313
20039
20117
1843
745
10745
21098
28941
28156
28588
28078
29921
29215
10156
20117
10588
2039
-9333
-9647
1450
9725
9803
10117
9607
705
1372
-9568
-8627
-196
10196
10588
-10000
-19058
-17372
-19686
-20352
-19333
-19568
-20000
-19764
-19254
-10392
-10156
-10196
-10000
-9725
-9411
-9882
-9921
-9529
-9686
0
-392
0
0
0
0
0
0
0
0
0
0
0
0
0
0
0
0
0
0
0
0
0
0
0
0
0
0
0
0
0
0
0
0
0
0
0
0
0
0
0
0
0
0
0
0
0
0
0
0
0
0
0
0
0
0
0
0
0
0
0
0
0
0
0
0
-196
-823
-19764
-19333
-19450
-19882
-20000
-19372
-20000
-21058
-20352
-20588
-30274
-30000
-39921
-39647
-39803
-39215
-30392
-20274
-20039
-30431
-29843
-38666
-39725
-50705
-39411
-30941
-29686
-39568
-40392
-39372
-38666
-49215
-40823
-30352
-58823
-50156
-39490
-10901
-8549
-10431
-21098
-20039
-17882
-980
-6705
-11882
627
49960
47411
37607
30196
980
-8823
-8431
-431
-431
10156
7098
20039
-823
-29568
-29803
-19333
-18666
-19568
-20745
-39372
-37294
8196
-1294
9215
7529
19529
28745
18745
11843
17882
19607
-29647
-28509
-27725
-17764
-20901
-19294
431
-392
1372
-509
901
8823
11921
14274
10784
20156
28000
26156
20352
-8823
1568
-78
-9764
-1215
2509
-156
-196
235
-8039
9333
-9254
-11137
-9137
-28509
-26588
-18901
-1960
18000
29764
29137
29960
29137
19803
-7764
-8274
1058
11254
10235
9568
9411
9568
-274
-901
-19372
-37411
705
10627
1058
10000
20588
20588
19686
862
-196
9333
11176
28000
30470
20117
29294
28784
28862
20705
12470
8666
156
549
-9019
-588
11764
10039
10588
10745
9725
10431
39
666
1215
9098
-9803
-10313
-19803
-19960
-18941
-19568
-18901
-19921
-19921
-19607
-19921
-9921
-9921
-10039
-10000
-10000
-9176
-10000
-9764
-9568
-10000
-10000
0
0
0
0
0
0
0
0
0
0
0
0
0
0
0
0
0
0
0
0
0
0
0
0
0
0
0
0
0
0
0
0
0
0
0
0
0
0
0
0
0
0
0
0
0
0
0
0
0
0
0
0
0
0
0
0
0
0
0
0
0
0
0
0
0
-196
-9529
-19725
-19607
-19372
-19529
-18901
-19960
-20509
-20000
-20000
-20156
-29647
-39372
-40000
-39647
-39843
-30000
-20235
-20823
-30392
-29921
-39686
-39568
-30156
-38470
-40352
-29725
-40039
-40901
-40078
-39647
-40313
-50117
-39098
-30705
-59647
-40000
-18862
-20627
-9098
-20941
-25411
-10941
8470
-1607
39
3333
40784
50196
48666
49215
27960
784
-9960
-4156
901
9254
6117
11490
18313
-19098
-9294
-19921
-19607
-22000
-17333
-28666
-38784
-29568
-20235
11254
19058
20117
27019
18941
1254
17490
18156
18431
-29333
-39333
-28627
-18392
-18352
235
-10392
1568
627
-9686
20627
13294
11019
9686
10039
11529
28705
39568
19372
-10274
-78
117
-235
2117
-9647
-1098
666
352
11215
9411
156
-9764
-8862
-19176
-38666
-18588
10627
21843
28627
30235
29058
29882
31098
10352
-9372
-980
11058
9764
9294
11960
9254
8588
-19215
-17921
-29215
-28705
10588
9686
10392
18862
20000
21686
9411
941
8745
11176
10156
28549
29215
19294
28745
29882
18470
10784
10392
11333
1450
-9333
-7764
-352
9568
10627
9764
11843
8745
1058
1058
9254
10313
-10352
-9411
-18823
-19254
-19333
-20000
-19372
-20000
-19490
-20000
-19803
-10000
-10588
-10000
-10235
-9450
-10000
-9686
-10000
-10000
-9764
-9294
-313
0
0
0
0
0
0
0
0
0
0
0
0
0
0
0
0
0
0
0
0
0
0
0
0
0
0
0
0
0
0
0
0
0
0
0
0
0
0
0
0
0
0
0
0
0
0
0
0
0
0
0
0
0
0
0
0
0
0
0
0
0
0
0
0
0
-10509
-9960
-19372
-19607
-19843
-20000
-19843
-20156
-20941
-20000
-20431
-39607
-39725
-40000
-39843
-30000
-20980
-20078
-30470
-29921
-39686
-40352
-39843
-29764
-40274
-30196
-29568
-40078
-38901
-39294
-40745
-39568
-40745
-39647
-59137
-39725
-21215
-19960
-19058
-27843
-20705
-26980
-19764
941
-823
2588
44509
49450
46156
59647
50117
117
-9803
-941
784
8117
9529
11019
8941
10117
-10941
-28862
-19411
-19411
-29019
-30862
-39803
-29490
-19803
-8823
-20078
28823
39607
27294
9803
29215
28666
17764
-19921
-39725
-38078
-39607
-19450
-9607
-11137
-10392
-9333
745
20274
3176
9450
11254
10745
11294
20078
29882
26784
19254
-19568
1882
-1294
941
-11294
-9490
1019
-666
-274
10039
10156
8980
470
-9764
-9843
-18784
784
352
28313
31607
28745
30196
27960
20705
19529
30117
705
8470
10039
10666
8470
10117
-9882
-17882
-20470
-16235
-49647
20117
10117
10784
10431
19803
19490
20901
9372
10941
10627
9137
10627
29764
29686
18627
20039
20078
-156
10705
10235
-39
-8627
-9019
-9490
9647
10627
9921
9607
20156
509
156
10196
19294
-9098
-10039
-19882
-19960
-18549
-19882
-19568
-20000
-20000
-19921
-10039
-10156
-10313
-10000
-10196
-10000
-10000
-9921
-9411
-10000
-10000
-10000
0
0
0
0
0
0
0
0
0
0
0
0
0
0
0
0
0
0
0
0
0
0
0
0
0
0
0
0
0
0
0
0
0
0
0
0
0
0
0
0
0
0
0
0
0
0
0
0
0
0
0
0
0
0
0
0
0
0
0
0
0
0
0
0
0
-823
-9960
-10078
-9921
-20274
-19607
-19215
-19647
-20274
-18980
-20313
-29294
-30078
-39882
-39411
-20274
-20352
-19490
-29490
-29176
-38980
-39686
-39137
-29490
-19960
-30588
-29529
-30666
-40000
-40549
-40549
-39607
-39607
-30509
-41215
-39803
-28901
-20666
-20235
-20588
-27686
-30196
-28039
10000
9647
10392
58588
59137
58980
59725
49215
29490
862
-627
941
9764
8588
549
19450
19764
352
-588
-28235
-19254
-28431
-20666
-20078
-28941
-18862
-21333
-8196
-10862
37764
29294
11098
28156
30000
20392
11333
-29725
-39058
-30274
-29529
-19725
-10039
-1176
117
-1294
-10784
8823
-156
39
9607
8666
19568
18705
18392
11725
-19490
-9529
2705
-9764
-9529
-9411
-8941
10588
-274
-39
9882
8392
10549
8901
9019
-10784
20980
862
-392
30509
30392
20823
10588
10784
10117
21843
29372
48901
10862
9411
10509
-10392
-5882
-9529
-9450
-17294
-9254
-39254
-30196
0
9686
9647
18117
30078
37411
784
9843
9254
11490
8470
9960
29058
20509
19921
19725
9647
117
10078
9294
-9411
-9333
-10313
10274
10235
9647
10196
20117
10117
10196
18627
20117
392
-9294
-18313
-18745
-19921
-18313
-19490
-19568
-19529
-20000
-9882
-10117
-9921
-9764
-10627
-9960
-10000
-9725
-10000
-10000
-9686
-10000
0
0
0
0
0
0
0
0
0
0
0
0
0
0
0
0
0
0
0
0
0
0
0
0
0
0
0
0
0
0
0
0
0
0
0
0
0
0
0
0
0
0
0
0
0
0
0
0
0
0
0
0
0
0
0
0
0
0
0
0
0
0
0
0
0
-9882
-10196
-9960
-11019
-10000
-9764
-10980
-19803
-20117
-30000
-29490
-29490
-29686
-30784
-29137
-20274
-19803
-29450
-29568
-39058
-39058
-38980
-38745
-30156
-10823
-29176
-31176
-29960
-39960
-39254
-39607
-40431
-30862
-30784
-28509
-39215
-20980
-29803
-30784
-28509
-30274
-36862
-28666
-2196
21843
20352
60196
57568
59529
40745
30666
31647
8039
11254
-509
-313
10313
20039
18705
9333
-9098
862
-27568
-21607
-20470
-19686
-28549
-18196
-20705
-9843
-10784
-10823
29921
25294
30470
19411
11333
11529
-30117
-18980
-30588
-29843
-19843
-20196
-20431
-9803
-10470
-8980
8431
9607
8274
-549
0
9568
8823
10000
2392
-2196
-17450
-37490
-19098
-18392
-18235
-8117
-431
-823
1960
10235
11529
10196
9098
11333
10980
28705
8039
-9098
-7960
18627
19803
11529
11254
11176
10705
9803
19843
29529
48666
509
-10313
-8392
-9647
-10039
-11647
980
1647
-45372
-48117
-30313
8784
8078
20941
29843
38470
8549
11137
7215
10196
10470
-39
19529
17098
11294
19254
18901
862
156
9294
823
-10509
-8470
313
10901
9450
18862
10980
8823
18980
20274
18627
1960
-8862
-19843
-19215
-19019
-17607
-19647
-20000
-19921
-9333
-10549
-10000
-9843
-10235
-10000
-10000
-10000
-9803
-9725
-9490
-10000
-10000
-156
0
0
0
0
0
0
0
0
0
0
0
0
0
0
0
0
0
0
0
0
0
0
0
0
0
0
0
0
0
0
0
0
0
0
0
0
0
0
0
0
0
0
0
0
0
0
0
0
0
0
0
0
0
0
0
0
0
0
0
0
0
0
0
0
-10274
-9568
-10941
-10156
-10705
-10745
-9960
-19686
-19882
-20313
-20392
-19098
-21058
-19764
-20000
-21529
-29058
-29686
-37764
-38980
-39294
-39254
-29137
-29568
-10156
-30117
-20901
-30078
-39019
-41098
-30117
-29686
-29294
-30627
-41411
-40901
-28352
-28980
-40588
-39372
-48431
-48941
-10313
-1450
8509
49176
46980
39098
29803
10039
10313
29607
470
-156
7647
20117
16509
20549
19568
-10235
-10156
-18509
-30862
-26549
-20117
-29764
-18078
-29882
-20313
-10117
-509
-7568
44862
22313
29215
20705
18235
-19803
-7803
-9058
-19568
-20078
-9411
-10470
-9725
-9921
-1607
18392
19137
18313
19058
20313
29176
29647
20431
17568
19176
-8431
-7411
-19725
-7490
1019
11803
9450
13450
-705
5490
8588
9529
10509
2745
7764
36313
19490
9843
-9843
-20392
12392
31960
24313
10862
10352
10588
19882
19921
11529
18901
-9058
-8078
-7725
-18901
784
11843
11803
8392
-39568
-40392
-36941
-19568
9921
18000
19725
27529
19529
9450
10078
1450
-2078
588
509
20823
19764
20666
19647
941
784
235
392
392
-10235
0
8745
10470
20078
8666
19098
19647
27843
2117
431
156
-19843
-18392
-19137
-19725
-18392
-9568
-10078
-9803
-10000
-10039
-10000
-10000
-10078
-9490
-10000
-9843
-10000
-10000
-9333
0
-117
0
0
0
0
0
0
0
0
0
0
0
0
0
0
0
0
0
0
0
0
0
0
0
0
0
0
0
0
0
0
0
0
0
0
0
0
0
0
0
0
0
0
0
0
0
0
0
0
0
0
0
0
0
0
0
0
0
0
0
0
0
0
0
0
-10039
-9607
-10823
-10117
-9411
-10156
-20509
-19882
-21176
-18941
-20313
-20862
-19921
-10705
-11686
-19764
-30313
-39176
-39764
-39294
-38431
-29450
-30941
-20117
-10705
-29294
-30078
-30980
-31333
-29098
-29529
-30901
-20941
-29490
-48745
-47058
-41019
-40352
-37647
-48862
-50039
-19686
-9450
-39
9058
37176
20941
28235
20627
32470
28823
30117
-588
9294
17921
19137
9176
-78
-11882
-10313
-156
-19607
-39960
-39960
-39764
-38588
-30549
-20588
-20627
1137
-1254
7019
20745
28313
20431
18117
-18352
-11254
-7725
-9333
-20627
-627
-10039
-9529
-10627
-10352
19843
19215
117
-745
9294
18431
18431
-470
9490
19686
18901
-2941
-10941
-11098
2509
-431
-5843
-9607
7803
9490
19098
19529
9607
10627
11921
29372
21450
31529
60470
50274
38980
50431
74000
78431
70078
67921
41725
49686
21019
29686
41764
40431
18588
30156
-6352
-9215
-18588
-8549
-823
-57921
-68470
-60588
-58117
-50784
-11254
-470
-980
-11333
9411
0
470
1490
196
-431
18549
20000
9843
18705
9215
549
-9333
-9843
-8156
-18901
509
980
8196
20745
19803
20196
30666
28980
9960
1411
509
-19215
-19607
-19490
-9921
-9490
-10078
-10000
-10784
-9254
-9960
-10078
-10000
-10000
-10000
-9921
-10000
-10000
-10000
-9921
-274
0
0
0
0
0
0
0
0
0
0
0
0
0
0
0
0
0
0
0
0
0
0
0
0
0
0
0
0
0
0
0
0
0
0
0
0
0
0
0
0
0
0
0
0
0
0
0
0
0
0
0
0
0
0
0
0
0
0
0
0
0
0
0
0
0
-10745
-10000
-10000
-10470
-10039
-19921
-19019
-20117
-20000
-20039
-20470
-19607
-10235
-10470
-9764
-20313
-38117
-39176
-39176
-39294
-29411
-28980
-28627
-8901
-9843
-30431
-29764
-41372
-29647
-30549
-30431
-29294
-29960
-41137
-49725
-40823
-41372
-39098
-50549
-40980
-38901
-16901
8313
-4235
39254
19882
19490
28431
30352
29764
30392
21098
9803
9921
19019
18470
-823
235
-11176
-9450
-28980
-38509
-47333
-40901
-28235
-20823
-19921
-17529
-9882
-9686
7803
11960
10745
19921
-18705
-17254
-9686
-8352
-8313
-1019
-1490
-9529
-10745
-10588
-9294
8470
-745
8392
-1098
-156
10235
-1607
-431
10196
8588
9529
10078
-18862
-8862
-19450
-9450
-19019
-18980
-5607
2156
-6352
47098
51725
49921
48196
47019
69882
66627
68666
69843
37960
48039
27725
54039
57725
60156
50666
58431
42196
43098
40588
41058
58823
58431
30078
28117
28392
-8823
-20117
-10352
-59411
-68117
-68823
-59882
-59411
-38039
-12588
313
9294
-18000
-18666
-19568
-19254
431
1450
20862
19411
18941
21019
10000
9529
-9607
-9058
-9294
-10470
-8666
627
19137
19921
18980
19568
28274
28784
11098
1411
-196
-19803
-9450
-9294
-8705
-9294
-10000
-9529
-10000
-10862
-10000
-10000
-9529
-10039
-9607
-9764
-9960
-9529
-9607
-549
-274
0
0
0
0
0
0
0
0
0
0
0
0
0
0
0
0
0
0
0
0
0
0
0
0
0
0
0
0
0
0
0
0
0
0
0
0
0
0
0
0
0
0
0
0
0
0
0
0
0
0
0
0
0
0
0
0
0
0
0
0
0
0
0
0
0
-9411
-11098
-9843
-10117
-19921
-20235
-19686
-20117
-21098
-20039
-20156
-10862
-9372
-11450
-10745
-20313
-29568
-29411
-29450
-29490
-28901
-30509
-19058
-10862
-10313
-19921
-30588
-29098
-30509
-20941
-29882
-30313
-30352
-39176
-49882
-40352
-40274
-48196
-40549
-37647
-18941
-19764
-352
-8784
29960
40745
30156
27568
30509
29450
19882
30235
10196
19529
18823
549
470
-20941
-9529
-10509
-28980
-38666
-30117
-39294
-30352
-18274
-21058
-10117
-627
9529
10431
-12980
9686
-17960
-19647
-8196
-10313
-16666
7490
2745
8941
1411
-1450
-1333
7372
10352
8705
-9764
-941
196
-784
10666
9411
9568
8901
9450
-20980
-9294
-7176
-20784
-15999
-21019
32941
26588
17333
30705
29294
27529
59450
58509
78392
80196
61647
53490
50274
50235
68196
50235
60313
58549
69490
83254
50235
51176
59019
51098
49176
60862
60431
58549
29254
29372
28549
-28980
-4156
-38901
-58431
-69372
-57960
-59647
-50274
-48588
-12666
9254
-19137
-29254
-19450
-18705
-20666
-19294
19882
19725
19960
18941
20196
10705
-9725
-9568
-10000
-7529
-8980
-8666
19450
28509
18000
18627
30784
9843
9803
10000
10196
-8352
-10313
-9490
-9176
-9686
-10941
-10000
-10117
-10000
-9960
-10352
-9450
-10000
-10000
-9568
-10000
0
0
-78
0
-313
0
0
0
0
0
0
0
0
0
0
0
0
0
0
0
0
0
0
0
0
0
0
0
0
0
0
0
0
0
0
0
0
0
0
0
0
0
0
0
0
0
0
0
0
0
0
0
0
0
0
0
0
0
0
0
0
0
0
0
0
0
0
0
0
-10235
-10000
-10000
-10274
-20431
-19647
-19529
-20274
-20039
-19764
-10274
-10549
-10980
-10274
-10313
-19450
-28549
-19764
-19607
-20392
-28941
-28784
-19803
-9372
-9372
-19725
-20039
-20431
-20980
-31019
-29137
-31568
-40431
-57686
-51372
-39450
-48000
-41999
-37647
-21019
-19960
-20274
-10784
-9607
40666
25568
28627
27529
30235
21490
20078
39372
9215
20745
-1921
941
-20823
-9647
-8549
-28705
-28980
-38549
-20156
-28156
-20549
-20980
-8549
-1411
10196
8941
-1882
-26274
10117
-6784
-9803
313
-9215
9294
11607
9568
-2078
-823
-10941
8313
11607
10039
-2117
941
-78
10705
7921
9882
19960
19372
19764
18470
-5686
-10549
-9568
-18549
38392
31607
29411
30941
19725
28392
23490
29333
29372
48705
48117
46980
57058
58784
52235
46823
80705
79568
59372
58705
61294
59450
68901
60823
60470
71215
47647
50705
57843
57921
29686
27490
31999
-18745
-20941
-37803
-58117
-69764
-69450
-58627
-58627
-39882
-27686
-1921
-19176
-29254
-18862
-19098
-18666
-17372
18901
19294
18509
20901
19921
8941
823
-8549
-8431
-313
-823
-8196
8862
29098
20823
19568
9333
9843
11137
20078
8784
-8470
-9372
-9725
-8274
-9568
-9529
-10352
-9725
-10117
-10000
-9372
-10156
-10000
-9137
-980
0
0
-39
-117
-196
0
0
0
0
0
0
0
0
0
0
0
0
0
0
0
0
0
0
0
0
0
0
0
0
0
0
0
0
0
0
0
0
0
0
0
0
0
0
0
0
0
0
0
0
0
0
0
0
0
0
0
0
0
0
0
0
0
0
0
0
0
0
0
0
0
-10000
-10509
-10000
-20039
-19490
-20156
-20039
-19137
-20235
-20196
-10117
-10196
-10235
-10313
-20117
-19882
-19999
-19647
-20039
-18784
-19254
-11019
-9411
-627
-784
-10000
-20705
-20196
-29647
-29568
-40784
-39450
-39529
-59176
-39960
-40666
-39607
-39960
-39764
-20156
-20313
-29803
-9843
1921
37294
29921
30784
29490
30352
19137
29490
40549
19803
9372
-7568
-19843
-8901
-11058
-29882
-30274
-29529
-39411
-19764
-18745
-8078
-2274
1333
9882
9019
39
1333
7843
-29215
-11058
-8901
-19254
9647
8941
11372
9333
-274
-10862
8980
705
-3764
745
-10156
-20431
-10549
8470
-352
666
18745
19490
8666
-9843
-10431
-7803
-20274
19137
20784
20431
10627
10274
28901
30235
19725
29686
29333
588
41372
49019
48862
59843
48627
50039
69764
67921
58823
69529
59333
50235
59411
60235
78078
81137
58666
50235
60156
59764
29568
30941
19529
20078
-18000
-39411
-60196
-48196
-58274
-59686
-48745
-50352
-29960
78
-19137
-28431
-9333
-9686
-8784
-10705
10627
19529
20117
29843
19725
10392
509
-313
-9529
823
666
-78
20470
39725
29137
30431
20509
29019
30000
29568
30509
0
470
-10000
-9372
-9294
-10156
-9960
-10000
-10000
-9921
0
-784
-39
-235
0
-235
-627
0
0
0
-117
0
0
0
0
0
0
0
0
0
0
0
0
0
0
0
0
0
0
0
0
0
0
0
0
0
0
0
0
0
0
0
0
0
0
0
0
0
0
0
0
0
0
0
0
0
0
0
0
0
0
0
0
0
0
0
0
0
-117
-274
0
-509
0
-78
-78
-9882
-9764
-19764
-20000
-19411
-19450
-19921
-19176
-20000
-10352
-10039
-10549
-10352
-10000
-20470
-10000
-19960
-19333
-19686
-20196
-19019
-10901
-9411
-705
9607
-10196
-19882
-30196
-39803
-40196
-29176
-39725
-39843
-59254
-40078
-49921
-40941
-39490
-20235
-21254
-20941
-21333
-19686
-11019
39019
30274
26901
30196
30313
28509
30588
9333
-470
-10823
-8117
-9058
-9764
-10078
-30313
-19803
-38784
-27529
-31607
-19607
117
18078
9411
117
8078
9254
-3921
8666
-29333
-9450
-20588
-1019
9725
8980
-1254
-20078
-17019
-21333
1921
666
-10039
-16941
-19176
-19686
509
-8901
-745
2196
-1647
13490
-19529
-18745
-18980
17529
17764
431
1254
6196
10862
17921
18745
23607
19568
28823
11647
-784
31058
38431
47490
40980
30117
39568
69568
68745
80666
60431
58117
59176
58901
79686
69137
89098
78470
49803
48823
58235
29607
20784
19215
18823
-18392
-39686
-40274
-48078
-61450
-59176
-60666
-48000
-20666
-37607
-19098
-10627
-19254
-11568
-10000
9098
11098
8627
30352
37960
20823
19372
431
588
-117
1098
10784
10862
19803
39725
39764
20862
29450
30392
29843
30274
29607
313
1019
117
156
784
0
0
0
0
0
0
0
0
0
0
0
0
0
0
0
0
0
0
0
0
0
0
0
0
0
0
0
0
0
0
0
0
0
0
0
0
0
0
0
0
0
0
0
0
0
0
0
0
0
0
0
0
0
0
0
0
0
0
0
0
0
0
0
0
0
0
0
0
0
0
0
0
0
0
0
-156
-196
0
-392
0
-19921
-18470
-20000
-19333
-19411
-18980
-19843
-19333
-19294
-10627
-10549
-10000
-9921
-705
-10000
-10000
-19686
-20470
-19725
-19607
-10274
-10235
-9725
-1411
7725
-8588
-20745
-29529
-39137
-29372
-39686
-39450
-40862
-50313
-32196
-49254
-38784
-20941
-10745
-19568
-30941
-37333
-19490
-10784
36627
30117
29450
28823
37098
31058
16862
-7647
-78
-9686
-17843
-11411
-10666
-28196
-17294
-862
-9411
-588
-3333
18235
48980
31411
38549
39058
35607
28313
20313
156
-30549
-1058
-9019
-21098
-19137
-19568
-11843
-19215
-18627
-14039
-2352
-18392
-28901
-27647
-19921
-9058
-18745
-17921
-18745
-9137
-9254
-28274
22117
29254
18352
10196
9529
30313
19490
19176
16941
28862
11098
9254
1607
11058
9294
4745
17529
22509
31725
30941
39215
40980
69568
61999
60392
68666
60156
68509
69098
78431
68588
80196
75764
61294
59019
59372
46509
17921
20156
11725
20823
-28352
-39372
-46823
-58156
-58000
-55960
-40705
-20549
-11764
-10000
-9921
-17568
-8941
17921
19843
17843
10862
29803
39882
28980
30509
21294
20627
19411
30000
30196
39960
30078
39803
50627
20156
19490
30196
29882
30078
29372
627
549
666
196
352
0
0
0
0
0
0
0
0
0
0
0
0
0
0
0
0
0
0
0
0
0
0
0
0
0
0
0
0
0
0
0
0
0
0
0
0
0
0
0
0
0
0
0
0
0
0
0
0
0
0
0
0
0
0
0
0
0
0
0
0
0
0
0
0
0
0
0
0
0
0
0
0
0
-941
0
0
0
0
0
-10000
-19411
-19568
-19450
-20000
-18980
-19647
-19725
-19176
-10745
-10078
-10117
-666
-705
0
-10078
-10352
-19921
-19490
-20627
-10431
-11490
-9921
-10156
9490
-9098
-10000
-38196
-31490
-28470
-39254
-39647
-39921
-30588
-50235
-40431
-40274
-31999
-9372
-30627
-30313
-39019
-11411
-20705
-10235
40588
28196
37843
37372
30627
16431
10235
627
1568
-9764
-12196
21254
11960
9098
-588
-10392
1294
6745
12078
27411
28156
37058
39843
38666
40705
28470
46470
-10078
-588
588
9803
19647
10000
8078
1176
-10745
156
15333
9607
9686
10392
-10666
-8705
-11137
-21137
32431
26784
39294
8941
8392
38274
37450
37647
38352
36862
27294
19960
19372
28627
8509
156
7568
-18509
-392
-11176
-19803
13098
7803
10549
39411
40196
30117
50431
59098
58823
72078
87647
79529
79176
78862
79882
69647
68392
70313
49058
58862
20392
21294
9333
19450
26196
-28392
-29921
-38196
-40156
-40470
-50823
-38000
-19764
-11450
-941
-7215
-10313
20666
19137
17215
20980
19098
20235
56549
59254
48941
40784
29529
30509
39568
30352
38078
41215
40823
29921
30745
30000
30078
30431
29607
30549
9647
235
196
666
352
0
0
0
0
0
0
0
0
0
0
0
0
0
0
0
0
0
0
0
0
0
0
0
0
0
0
0
0
0
0
0
0
0
0
0
0
0
0
0
0
0
0
0
0
0
0
0
0
0
0
0
0
0
0
0
0
0
0
0
0
0
0
0
0
0
0
0
0
0
0
0
0
0
0
-235
-666
-196
0
-10000
-9294
-18823
-19568
-18745
-19725
-19921
-19215
-18235
-19529
-9921
-470
-705
0
-313
-588
-9215
-10274
-20117
-20627
-19843
-8941
-9607
-10549
-980
7607
-19921
-21686
-38588
-29647
-38784
-40274
-39529
-38980
-30588
-49960
-31843
-39568
-30745
-32039
-38509
-40823
-39176
-21686
-19372
-274
48745
38666
28941
29647
28745
10117
-17607
-11686
980
11215
17960
8745
-3529
588
-12039
-8941
901
17215
9568
28470
41333
39686
38627
26078
28470
16745
51843
-1215
-862
9921
20000
28235
19058
9294
10941
666
-117
18980
20117
21098
20156
30470
69019
60627
62039
57450
68313
37607
19333
30549
30980
40705
46980
47333
20078
627
-3215
8941
11803
19921
21725
21215
20039
30470
-7803
1450
29803
30352
30862
9882
18784
2509
41058
61647
80627
78392
89215
88980
68901
68509
88392
78470
69098
67529
49725
47058
29764
17333
21215
20705
40156
20470
-38784
-30627
-38823
-47960
-30627
-38470
-33137
-19607
-29921
-9843
29607
29647
30039
29176
28352
28392
29215
41568
59019
58078
49215
50274
37882
49803
49450
40392
38509
20901
29568
30627
30705
29137
29882
29882
29921
10235
509
-39
-39
431
0
0
0
0
0
0
0
0
0
0
0
0
0
0
0
0
0
0
0
0
0
0
0
0
0
0
0
0
0
0
0
0
0
0
0
0
0
0
0
0
0
0
0
0
0
0
0
0
0
0
0
0
0
0
0
0
0
0
0
0
0
0
0
0
0
0
0
0
0
0
0
0
-509
0
0
-666
-9921
-9882
-9843
-9960
-19568
-19372
-19686
-19490
-19019
-19803
-19882
-9843
-745
-823
-627
-39
-78
-549
-10431
-10000
-19411
-20117
-10705
-9803
-980
-352
-39
-10470
-20039
-28156
-39764
-30588
-39647
-39215
-39529
-29803
-40705
-60078
-30235
-48117
-30549
-41490
-29647
-39333
-39607
-20980
-20705
7019
38549
30549
26980
29176
18745
-9647
-21137
-8941
9803
9411
21490
-9725
-6784
-30156
-20117
-2509
19647
11529
20117
40470
39254
19725
11058
20509
18745
50588
27058
823
-8470
627
9882
18666
1098
392
588
9294
9490
20196
18980
20784
57215
59333
48352
48392
55333
49176
28823
19529
31686
8745
11176
-156
-274
20666
7215
10941
8392
19843
19098
18862
18470
22117
12039
19803
11254
10431
117
-17294
-9647
21333
22666
20117
39372
48313
59882
61019
88823
87882
88117
68117
68823
70078
49568
60431
48784
50901
27803
31921
20000
18352
40549
18549
-51215
-28509
-30980
-29019
-39372
-29607
-28627
-29764
-29529
18941
19137
29372
27686
29450
30274
29333
28666
38431
68196
68941
50470
49098
59215
47882
49960
49333
49411
29921
22039
29960
30156
30705
39372
30235
29803
10666
1333
0
196
509
0
0
0
0
0
0
0
0
0
0
0
0
0
0
0
0
0
0
0
0
0
0
0
0
0
0
0
0
0
0
0
0
0
0
0
0
0
0
0
0
0
0
0
0
0
0
0
0
0
0
0
0
0
0
0
0
0
0
0
0
0
0
0
0
0
0
0
0
0
0
0
0
0
-39
-549
-9764
-9921
-10000
-10000
-10000
-19803
-18588
-19686
-19568
-19803
-18313
-19960
-8549
-470
0
-156
-1372
-156
0
-10313
-10000
-20352
-20078
-9843
-862
-235
-10784
-10039
-11333
-19686
-29960
-39411
-28980
-30274
-30196
-38784
-39921
-39333
-59607
-31137
-32039
-40941
-39176
-40392
-39411
-40470
-19725
-19843
-431
40901
28941
28470
19764
20196
-6352
10705
9921
823
18588
-11411
-17607
-21686
-18274
313
-1607
20901
-1215
20666
25803
18117
10156
8980
7803
32078
35607
-9176
-9647
-11411
-352
784
1647
78
8823
10666
10117
30235
23843
21686
58392
51019
49294
49529
60117
68823
68666
30431
8745
0
1019
-10509
470
8901
18549
8196
10039
21921
20627
18627
19058
1254
78
2627
9098
-9607
-17764
20156
29215
862
1921
11647
18392
43411
40705
48745
60117
60588
58352
70156
79843
77333
59450
50274
49215
40941
38352
30000
30509
18352
20039
38666
1647
-1686
-39725
-29843
-20705
-29568
-20941
-28941
-39411
-28196
-745
29529
18980
29254
28901
28039
29764
39411
49254
49725
67725
68509
50000
57921
69686
58823
50862
50274
40000
29882
40431
29843
31490
38745
39843
29921
10039
-274
156
470
274
0
0
0
0
0
0
0
0
0
0
0
0
0
0
0
0
0
0
0
0
0
0
0
0
0
0
0
0
0
0
0
0
0
0
0
0
0
0
0
0
0
0
0
0
0
0
0
0
0
0
0
0
0
0
0
0
0
0
0
0
0
0
0
0
0
0
0
0
0
0
0
0
0
-10000
-9490
-10000
-10000
-9137
-9843
-9921
-19098
-18705
-19568
-19686
-19764
-19215
-18588
-1411
-666
-509
-1215
0
-705
-666
-588
-10039
-19882
-1215
-509
-2117
-9803
-10862
-11843
-28627
-38196
-39882
-49568
-38666
-29882
-39411
-38156
-39568
-41058
-49882
-48705
-39686
-39450
-41058
-39490
-40078
-30039
-20431
-21176
-392
39215
29490
19058
18039
-9921
20588
8313
11607
8941
9450
-18196
-20823
-18431
-509
-313
10235
-1333
7411
29882
10117
10196
11607
6549
40392
28862
38274
-15490
-11176
-10000
-7843
-20039
-10274
-196
1098
9647
9294
20980
20078
18156
49176
58117
67960
57411
69607
70313
8313
1333
-392
1058
980
-431
11333
9411
10078
12078
10000
6039
8549
9686
1411
2509
-2000
12235
-10235
-7490
7450
31333
31843
30823
31137
29529
31843
40352
40549
50039
51529
50274
58941
59254
67960
69058
59254
49098
50196
40274
39019
10431
18901
28666
33176
26431
117
10000
-29176
-21999
-18666
-20627
-28666
-10039
-39647
-156
-1960
29490
16156
19176
30745
27725
30666
40156
49215
48745
50117
67647
59333
67803
68392
59333
47921
29058
40000
40352
29764
40666
29803
31294
38705
39333
10901
9764
901
-313
196
